%YAML:1.0
---
myHogDector: !!opencv-object-detector-hog
   winSize: [ 64, 128 ]
   blockSize: [ 16, 16 ]
   blockStride: [ 8, 8 ]
   cellSize: [ 8, 8 ]
   nbins: 9
   derivAperture: 1
   winSigma: 4.
   histogramNormType: 0
   L2HysThreshold: 2.0000000000000001e-01
   gammaCorrection: 1
   nlevels: 64
   signedGradient: 0
   SVMDetector: [ 3.07628307e-02, -1.97682325e-02, -2.35945228e-02,
       1.51509214e-02, 2.03031097e-02, 2.21374468e-03, -2.99161803e-02,
       -1.17599098e-02, 4.28362340e-02, 2.50929482e-02, -1.62952542e-02,
       -2.03121677e-02, 1.08843320e-03, -1.33748138e-02, -9.07025952e-03,
       -1.44278686e-02, -1.42053217e-02, 3.15495729e-02, -6.65898016e-03,
       9.19829254e-05, -1.24110524e-02, 6.08772375e-02, 1.27870049e-02,
       2.41320487e-02, -2.62596942e-02, -2.06940006e-02, -7.64429150e-03,
       -5.01520280e-03, -1.07651921e-02, 9.72158927e-03, 3.54400128e-02,
       -6.30494347e-03, 2.00321395e-02, 6.11340581e-03, -2.08014884e-04,
       -2.00399719e-02, 5.94703015e-03, -3.06500830e-02, -2.37159766e-02,
       6.82720775e-03, 8.55679810e-03, -1.24242641e-02, -2.12585945e-02,
       -8.19786545e-03, 3.82391363e-02, 7.74730137e-03, -6.19028229e-03,
       9.03611258e-03, 3.48164104e-02, -6.45958353e-03, 4.06519556e-03,
       -5.99104678e-03, 1.65062100e-02, 3.05542685e-02, -9.67599079e-03,
       -5.96608850e-04, -5.35814697e-03, 2.50553060e-02, 1.23526659e-02,
       1.09610138e-02, 3.63152544e-03, -1.32896770e-02, -1.13532040e-02,
       2.53765304e-02, -2.48275977e-03, -1.70290638e-02, 3.67589034e-02,
       -6.61613187e-03, 1.98174827e-02, -1.62853592e-03, -2.23936141e-02,
       2.03923099e-02, 2.45062192e-03, -7.40881264e-03, 7.07409857e-03,
       1.15261404e-02, 4.15801723e-03, 2.89176255e-02, -1.04839606e-02,
       2.70066224e-02, -1.64098246e-03, -1.96232647e-02, -1.80045441e-02,
       2.90015456e-03, -2.34220196e-02, 2.76032481e-02, 3.74842882e-02,
       -2.48185545e-03, 3.62862535e-02, 2.23512296e-02, -2.68476307e-02,
       4.66037833e-04, 7.64114433e-04, 2.46338192e-02, 3.17963548e-02,
       3.88683416e-02, -1.21852541e-02, -2.22385265e-02, -2.43428648e-02,
       -3.89577486e-02, -2.54616663e-02, -9.66288615e-03,
       -5.43423463e-03, -1.16551314e-02, -1.29975681e-03,
       -1.97459888e-02, -1.23661035e-03, -1.81157961e-02,
       -7.57341320e-03, 2.78183492e-04, -2.79020192e-03, -2.22939253e-02,
       -1.12444824e-02, 2.99701225e-02, -4.00407286e-03, 1.73248742e-02,
       1.27853584e-02, -1.07161682e-02, 4.52414737e-04, -1.56650692e-02,
       -2.47685704e-02, -1.56250522e-02, 1.63640678e-02, -4.44688508e-03,
       -9.97851230e-03, -4.88578808e-04, -5.93958609e-03,
       -1.86484959e-02, 1.87935308e-02, -1.89425889e-03, -3.01872529e-02,
       9.21787601e-03, 1.18614240e-02, 2.37659477e-02, 4.07319935e-03,
       -2.39779856e-02, -4.01928201e-02, -2.63227616e-02,
       -2.33427398e-02, -1.36909252e-02, 8.43528565e-03, -6.34873845e-03,
       -1.73616782e-02, -7.99976056e-04, -1.07452953e-02, 1.92216747e-02,
       -4.24331054e-02, 6.38391217e-03, 1.60000671e-03, 4.49936697e-03,
       -1.24340388e-03, 7.71351811e-03, -1.96349863e-02, -5.69068268e-03,
       1.47462217e-03, -5.46651185e-02, -3.41849066e-02, -1.05085422e-03,
       -1.30902901e-02, -2.00547408e-02, 1.85008775e-02, -2.65007131e-02,
       -6.69248914e-03, 2.12649275e-02, -4.01681364e-02, 2.83015752e-03,
       -4.70635889e-04, 2.72233244e-02, 9.78159439e-03, 2.84201950e-02,
       1.45894317e-02, -1.36836069e-02, -1.98705960e-02, -2.36291774e-02,
       -6.55164113e-05, 2.22135987e-03, 1.38899712e-02, -1.49082001e-02,
       2.06970032e-02, 7.29189441e-03, -1.78670771e-02, -8.72721430e-03,
       -4.79693264e-02, 8.83856043e-03, 3.70485187e-02, 1.86543353e-02,
       1.28478874e-02, 5.74901029e-02, 6.75093662e-03, -1.69374272e-02,
       -1.59731321e-02, -3.19477506e-02, 1.78122949e-02, 8.47765303e-04,
       -2.09279452e-02, 2.79470510e-03, 1.24355089e-02, -2.28682589e-02,
       1.17651150e-02, 3.05919480e-02, -2.35227924e-02, 3.75178345e-02,
       4.27071564e-02, 4.19336744e-02, -2.75658928e-02, 2.42925212e-02,
       -2.48657223e-02, 9.21292137e-03, 2.44409274e-02, -1.37030464e-02,
       -2.91403802e-03, -1.54009685e-02, -2.30655484e-02,
       -3.43272649e-02, -1.52363870e-02, -9.62466933e-03,
       -4.52752167e-04, 6.14047935e-03, -4.43841098e-03, 1.83403417e-02,
       5.21331793e-03, -1.01186065e-02, -3.50672286e-03, 2.62768548e-02,
       1.69042498e-02, -1.31902564e-02, -1.61022488e-02, -2.84113903e-02,
       -7.59816356e-03, 8.48286320e-03, -2.92265043e-02, -4.33911309e-02,
       2.72017941e-02, -5.60447853e-03, 1.34346997e-02, 1.80567112e-02,
       2.49033282e-03, 1.22758793e-02, -1.40542758e-03, 8.16222467e-03,
       5.08434884e-03, 2.93923933e-02, 1.85631365e-02, 8.67626921e-04,
       -3.69648002e-02, 1.17389289e-04, -2.40277369e-02, 1.07463971e-02,
       1.10218199e-02, -3.04796286e-02, 1.04599902e-02, -9.58942529e-03,
       -1.45067628e-02, 1.03900535e-03, -1.09365862e-02, 7.04317121e-03,
       3.31550390e-02, 1.72059666e-02, -1.89382844e-02, 3.89945321e-02,
       -8.80842970e-04, -2.01957785e-02, -7.49359513e-03,
       -2.89428029e-02, -5.53714694e-04, -8.09710007e-03, 1.13952474e-03,
       -1.13725765e-02, 3.22765894e-02, -5.04489173e-04, -1.78192519e-02,
       -2.37674527e-02, 1.77585296e-02, 3.00536137e-02, 1.20879197e-02,
       3.31797525e-02, 2.28512567e-02, 5.26326336e-02, 1.39430631e-02,
       2.71212915e-03, -1.42121464e-02, 8.09033227e-04, 2.72294413e-02,
       -1.38072744e-02, -1.44197308e-02, 1.04050189e-02, 5.22165000e-03,
       1.27124991e-02, -2.76695695e-02, -3.87350842e-02, -1.14370184e-02,
       4.12089191e-02, -2.06736792e-02, 1.25262393e-02, -1.92781223e-03,
       1.95763540e-02, 1.53049873e-02, -8.07186589e-03, -1.82887428e-02,
       -1.85238831e-02, 2.65228897e-02, 1.28659478e-03, 6.50230702e-03,
       4.03749570e-03, 1.42148510e-02, -2.08932701e-02, 2.35901549e-02,
       -2.89102625e-02, 4.19832813e-03, 1.37763098e-02, -6.04414474e-03,
       -7.82294385e-03, -1.01244077e-03, 2.31150258e-03, 1.47607215e-02,
       -1.68236159e-02, -3.41920480e-02, -3.00064273e-02,
       -1.20884832e-02, -4.69398312e-02, -1.42560042e-02,
       -1.46088526e-02, -1.31650241e-02, -2.61518471e-02, 1.39273924e-03,
       -1.21968156e-02, -2.26514898e-02, 1.39313703e-02, -1.08137596e-02,
       1.18501838e-02, 7.63634592e-03, 1.72906779e-02, -1.20553588e-02,
       -1.62327718e-02, -3.89073491e-02, -6.52392805e-02,
       -1.54641671e-02, -1.55791510e-02, 1.92981381e-02, -1.25149367e-02,
       2.13362630e-02, -3.02861240e-02, 2.17081215e-02, 2.97256606e-03,
       -1.55884102e-02, 6.12279633e-03, -1.04323048e-02, 1.14463344e-02,
       -2.01189378e-03, 8.85471702e-03, -1.58909429e-03, -5.52287418e-03,
       -1.38706164e-02, -1.61752256e-03, 5.83257154e-03, -1.45237958e-02,
       -1.57550983e-02, -2.50253920e-02, -8.48816801e-03, 4.85990988e-03,
       -2.20355508e-03, -5.79036120e-03, -2.39930656e-02, 8.47251713e-03,
       -1.52405789e-02, -2.68260180e-03, -2.79530585e-02, 1.60024632e-02,
       -2.69072484e-02, -2.16874070e-02, -3.48867923e-02,
       -1.45425918e-02, 3.30472994e-03, -5.23445830e-02, -2.32407916e-03,
       -3.46790701e-02, 5.25295874e-03, -1.72649603e-02, -4.03822679e-03,
       5.82294399e-03, 1.64917838e-02, 2.38078870e-02, 1.67311653e-02,
       5.81213180e-03, -3.09541747e-02, 6.93011377e-03, -1.04937973e-02,
       3.47892684e-03, 1.42783648e-03, 2.16360204e-02, 1.92566831e-02,
       -2.32928824e-02, -1.65906583e-03, -2.12440882e-02, 9.71778668e-03,
       1.51784504e-02, -2.73587368e-02, -1.52493026e-02, -1.61914229e-02,
       5.00631891e-03, -1.09934881e-02, -4.44001099e-03, 3.62376100e-03,
       3.67609784e-02, -1.01747003e-03, -2.67871730e-02, -2.24066824e-02,
       -2.40575988e-02, -2.42752153e-02, -2.04644147e-02,
       -3.44947428e-02, -4.73492267e-03, 2.64931172e-02, 1.09446906e-02,
       1.19005684e-02, 7.42534501e-03, 8.88002757e-03, 1.56297851e-02,
       3.19666974e-02, 2.15497054e-02, 1.00814048e-02, 3.40096019e-02,
       1.06767295e-02, -3.49491909e-02, -4.49713022e-02, -8.60829279e-03,
       2.41812188e-02, 2.36480515e-02, 6.00264035e-03, -3.68571538e-03,
       -6.55545853e-03, -2.18450949e-02, -1.04655521e-02, 1.56794619e-02,
       4.76720417e-03, 2.82460870e-03, -1.59619134e-02, -3.08269877e-02,
       -4.12415341e-03, 1.85343232e-02, 7.13715004e-03, -2.98630446e-02,
       -1.35246885e-03, 2.42765062e-03, -1.22934463e-03, -9.79356002e-04,
       -1.69452056e-02, 2.99045607e-03, 1.91129874e-02, -2.25288738e-02,
       -7.71499146e-03, 1.48835839e-04, 1.06099611e-02, 3.60065959e-02,
       4.63630771e-03, 2.06810422e-02, 2.37143375e-02, 3.39207053e-02,
       -1.28996074e-02, 1.18093181e-03, -5.74677717e-03, -1.57408882e-02,
       1.15655372e-02, -1.56798842e-03, -4.97545931e-04, 1.52620971e-02,
       1.09635601e-02, -1.01552615e-02, -1.89260207e-02, 2.71650665e-02,
       1.95113681e-02, -2.30055721e-03, 5.53564169e-03, -4.45783325e-02,
       -1.06631545e-02, 3.03234141e-02, -6.91783801e-03, 3.07555194e-03,
       -4.37205564e-03, 5.41573809e-03, 2.24633198e-02, 3.22751589e-02,
       5.55093959e-03, -8.55316129e-03, -1.04842689e-02, 5.21477086e-05,
       -1.41089708e-02, 8.11041519e-03, -4.96843690e-03, 1.17019238e-03,
       2.33067316e-03, -1.66417547e-02, -4.54430049e-03, 2.11948510e-02,
       1.05345445e-02, -1.11760711e-02, -1.97675060e-02, 6.75808964e-03,
       1.88365008e-03, 8.53322726e-03, 1.59478642e-03, -3.26721147e-02,
       -2.75985207e-02, 2.33887555e-03, 3.38786021e-02, -1.25170248e-02,
       -2.88251378e-02, -1.27720311e-02, -3.41355689e-02,
       -3.56635381e-03, -5.07989572e-03, -1.47475721e-02, 1.37964301e-02,
       3.89671214e-02, -1.39175998e-02, 2.69617513e-03, 2.89963325e-03,
       -3.06262150e-02, -2.73825470e-02, -6.76837703e-03,
       -1.91099457e-02, 4.02399376e-02, 1.63332676e-03, -2.35994775e-02,
       -2.65692063e-02, -3.07786698e-03, 1.29778394e-02, -3.74770490e-03,
       -4.07714024e-03, -2.45121513e-02, -3.59256496e-03, 1.97134186e-02,
       -7.88933877e-03, -3.94651759e-03, 6.80071709e-04, -3.28209717e-04,
       -2.83728261e-02, 2.22036950e-02, -4.92224377e-03, 2.18769461e-02,
       4.43734489e-02, -1.17545668e-02, 8.06967076e-03, 4.85434681e-02,
       1.94208957e-02, 1.70562100e-02, -3.37946564e-02, -2.59012412e-02,
       1.88197102e-02, 3.41049954e-02, 1.87212005e-02, 3.60371284e-02,
       3.68923955e-02, 6.54428080e-03, 3.11764721e-02, 7.50904717e-03,
       1.70508604e-02, 1.64356977e-02, 2.27144007e-02, -3.41064036e-02,
       -1.96036100e-02, 2.60300655e-02, 5.88708511e-03, -2.31968910e-02,
       -5.35721555e-02, -2.74738166e-02, 3.02495919e-02, 1.78051032e-02,
       -2.92612668e-02, 1.09434398e-02, -2.82679661e-03, -3.73167731e-02,
       7.97547307e-03, -1.48031265e-02, -6.47053402e-03, 2.33294051e-02,
       1.54936649e-02, 7.54779577e-03, -1.03445854e-02, -2.25736909e-02,
       1.59917970e-03, 1.53997289e-02, -6.27448689e-03, 2.05395743e-03,
       1.33547392e-02, 2.40220316e-02, 9.20111022e-04, -9.09510069e-03,
       2.52646185e-03, 2.85195885e-03, 1.08574633e-03, 1.23864496e-02,
       1.18837403e-02, 2.85519212e-02, -4.66266973e-03, -4.40564519e-03,
       1.92620214e-02, -1.35553740e-02, -6.40956918e-03, 4.86550340e-03,
       -1.98413860e-02, -4.34861816e-02, -4.25393367e-03, 2.12780815e-02,
       -1.71674360e-02, 4.36035823e-03, -2.17560809e-02, -6.65254984e-03,
       5.09264972e-03, -1.22325402e-02, 2.37900298e-03, 2.80980561e-02,
       4.33671948e-06, -1.62546672e-02, 8.20479728e-03, 2.36258991e-02,
       2.50771418e-02, 2.13122331e-02, -1.42798815e-02, -7.80359423e-03,
       -1.04349367e-02, 5.61219919e-03, -5.77284209e-03, 2.97019873e-02,
       7.69392401e-03, 3.19824032e-02, -6.51689013e-03, 1.01539250e-02,
       2.87330803e-02, -2.16216268e-03, 3.24584101e-03, -2.52715945e-02,
       2.49470788e-04, -8.21918994e-03, 1.04524093e-02, -2.75378488e-03,
       -6.25764113e-03, 2.85413209e-02, 2.50119474e-02, -3.21260169e-02,
       -1.59151107e-02, 3.06217372e-03, -1.28772426e-02, 4.04204130e-02,
       -2.34319959e-02, 1.60459112e-02, 3.39027382e-02, -4.24294407e-03,
       -1.59950797e-02, -6.26728311e-03, 2.28011198e-02, -3.17921191e-02,
       -3.35047394e-02, -5.14204195e-03, 1.85191594e-02, 2.75533777e-02,
       -3.09956213e-03, 2.81502716e-02, 4.76432964e-02, 2.04974576e-03,
       -4.23588306e-02, 1.82211790e-02, 1.67529900e-02, -2.53809877e-02,
       -4.06265482e-02, 6.35866681e-03, -2.33667828e-02, 3.74930911e-02,
       5.33954464e-02, 2.11033155e-03, -2.48978902e-02, 3.03503848e-03,
       1.61615275e-02, 3.15523967e-02, -3.59774940e-02, -1.53138582e-03,
       4.36236933e-02, 3.99636216e-02, -2.96108574e-02, 8.94228835e-03,
       -3.77134755e-02, -3.74667086e-02, -5.84806614e-02,
       -4.32220697e-02, 2.70807017e-02, 6.00738078e-02, -1.26917502e-02,
       -3.11991274e-02, -1.90486573e-02, 1.77660566e-02, -2.33041365e-02,
       -2.23851241e-02, 4.91300924e-03, 1.16316937e-02, 2.87124086e-02,
       -4.08629365e-02, -2.19523143e-02, -2.80555300e-02,
       -6.50146184e-03, -3.72295715e-02, -1.18108699e-02,
       -1.32703539e-02, 5.63742258e-02, 9.47711468e-02, 1.45972865e-02,
       -1.26373721e-02, -9.72217787e-03, -2.23898906e-02,
       -1.72048714e-02, -2.03642379e-02, -1.39550213e-02, 4.42574620e-02,
       4.75514345e-02, -2.03484595e-02, -1.51287450e-03, 1.17545156e-02,
       -3.00357509e-02, -8.68154282e-04, 7.24707730e-03, -1.24812741e-02,
       2.24085990e-02, 3.91616113e-02, -2.72755008e-02, -7.93538243e-03,
       3.14846523e-02, 6.05452433e-03, -3.81182283e-02, 2.95520178e-03,
       -1.18851736e-02, 2.41924766e-02, 1.86413936e-02, -3.04830130e-02,
       -1.25573145e-03, -4.26586764e-03, -2.05553118e-02,
       -4.90047745e-02, -1.19901961e-02, -7.89027847e-03, 4.27499115e-02,
       4.64610718e-02, -7.65364757e-03, 4.94969729e-03, -3.09625431e-03,
       9.45754815e-03, 2.17473004e-02, 2.61634458e-02, -2.61394884e-02,
       2.79532783e-02, 2.26522293e-02, -2.22521015e-02, -5.57441311e-03,
       -2.10479763e-03, -6.96183974e-03, -1.44027779e-02,
       -2.12085014e-03, -2.15428788e-02, 7.72367604e-03, 6.93009282e-03,
       -2.44521182e-02, 1.56530626e-02, 2.10622419e-02, 1.31942118e-02,
       -1.40340198e-02, 4.03222482e-04, -5.83432964e-04, 1.06380170e-03,
       -2.13391688e-02, -1.64211297e-03, -1.52669121e-02,
       -1.67562626e-02, -8.53428245e-03, -1.54999886e-02,
       -9.57722589e-03, -9.18398891e-03, 5.30868247e-02, 6.03884272e-02,
       -1.77572574e-02, 3.85542735e-02, 3.06832585e-02, 3.38700451e-02,
       2.59122215e-02, 1.92403831e-02, -1.15507254e-02, 2.83174589e-02,
       2.42094249e-02, -1.32744331e-02, -1.73161328e-02, 2.21725442e-02,
       1.78750493e-02, 1.94363389e-02, -1.68245099e-02, -4.03526751e-03,
       4.99984622e-03, -1.78971533e-02, 1.97877502e-03, -1.16879251e-04,
       -2.91945376e-02, 2.59563880e-04, 1.53338152e-03, 3.38221788e-02,
       7.78779434e-03, 9.40561667e-03, -6.31422643e-03, -4.00550989e-03,
       1.04285497e-02, 8.02618731e-03, 3.71324713e-05, -1.29399477e-02,
       -2.00405857e-03, -1.69047061e-02, 5.55684045e-02, 6.02764226e-02,
       6.46590395e-03, 7.82434456e-03, -3.52129596e-03, 4.49678907e-03,
       -1.00179529e-02, 1.68140810e-02, -2.11100746e-02, 2.71039885e-02,
       5.37949577e-02, 1.74713172e-02, 1.80419218e-02, 5.88960992e-03,
       1.74036697e-02, -2.49777716e-02, -3.60357040e-03, 2.16948856e-02,
       -1.75691827e-03, -2.43047047e-02, -2.82900874e-02, 1.75843772e-04,
       8.00098758e-03, 7.64843589e-03, -3.04664578e-02, -3.57292965e-02,
       -1.15588810e-02, 1.17413066e-02, -3.16650197e-02, -5.77497333e-02,
       -1.33382808e-02, -1.28394831e-02, -2.92983390e-02,
       -2.22274791e-02, -3.14062461e-02, -1.76756047e-02, 2.87200194e-02,
       2.41718236e-02, -2.09161686e-03, 3.81520912e-02, 1.25392610e-02,
       3.41127925e-02, 9.44165234e-03, 1.05774971e-02, 3.70630249e-02,
       2.42453795e-02, -1.11291762e-02, -2.79313959e-02, 2.44031679e-02,
       4.80247522e-03, -3.20911204e-04, -1.51415104e-02, -2.73735486e-02,
       -2.72619049e-03, 9.86899436e-03, 5.05619869e-03, -3.15889791e-02,
       -1.54396109e-02, -2.76774652e-02, -1.64394453e-02,
       -1.37968576e-02, -4.42644348e-03, -5.64793358e-03,
       -3.09123173e-02, -8.15020315e-03, -1.29146483e-02, 8.65520164e-03,
       -1.39911072e-02, -4.65933233e-03, -3.50270271e-02,
       -2.63278391e-02, -4.93359044e-02, 2.00576521e-02, 4.03003991e-02,
       -1.31904073e-02, 2.94967107e-02, -6.14754576e-03, 3.23875286e-02,
       -2.16145208e-03, 1.52469391e-03, -4.48881499e-02, -2.46289745e-02,
       1.01151606e-02, -1.77641995e-02, 8.68967362e-03, 1.08792372e-02,
       1.74069088e-02, -3.61038707e-02, -2.44281087e-02, -3.23857479e-02,
       -3.59730646e-02, 2.22037360e-02, 6.42987434e-03, 2.16946602e-02,
       1.01524107e-02, 1.16446419e-02, -2.34268475e-02, -1.34768551e-02,
       -4.04644422e-02, -2.47663707e-02, -2.47158669e-02,
       -4.31697629e-03, 2.30566058e-02, -3.16936597e-02, -1.96225196e-02,
       -2.26192325e-02, -2.93569616e-03, 2.22101924e-03, 6.20215293e-03,
       4.29859292e-03, 3.74171301e-03, 1.80456471e-02, 2.45955046e-02,
       1.53062791e-02, -4.39711876e-04, 4.97847097e-03, -1.51382536e-02,
       6.40633656e-03, 1.67458337e-02, 1.52318794e-02, 4.52399924e-02,
       1.58912670e-02, -1.61480065e-02, -5.46972593e-03, -3.88624310e-03,
       -1.28563645e-03, -1.79336797e-02, -6.61454676e-03,
       -1.07266847e-03, 5.02953818e-03, -4.94127907e-03, -1.31203393e-02,
       -1.26866763e-02, 7.56141031e-03, 8.78124032e-03, -2.31146552e-02,
       -3.27132829e-03, 9.28226043e-04, 7.06142467e-03, -3.99035327e-02,
       -1.14637520e-02, -2.09160708e-02, 6.72604097e-03, -2.77899075e-02,
       2.82451436e-02, 4.26573716e-02, 5.83746657e-03, 4.05122228e-02,
       4.98414189e-02, 6.43026875e-03, -1.11992750e-03, 1.91713925e-02,
       -2.77383253e-03, 4.12681000e-03, 3.98813374e-02, 1.73663888e-02,
       3.11914422e-02, 2.03599147e-02, 2.14298964e-02, -3.65292100e-04,
       1.69995856e-02, -1.66347791e-02, -2.23616939e-02, -8.99579190e-03,
       1.29380636e-02, -6.13175239e-03, -4.55291010e-02, -1.12223299e-02,
       -1.85684375e-02, 2.70695407e-02, -2.20031524e-03, -1.48125608e-02,
       -3.71769555e-02, -2.63323374e-02, -7.03509711e-03,
       -2.43536849e-02, -1.57941487e-02, -1.22039551e-02, 1.37902703e-02,
       -9.02179442e-03, 1.01748211e-02, 3.89697179e-02, 5.48022725e-02,
       5.49462959e-02, 2.94943191e-02, 5.42802848e-02, 2.29220148e-02,
       3.02388165e-02, 2.15186086e-02, -1.17838969e-02, -9.94188618e-03,
       1.32935764e-02, 8.50740727e-03, 2.51264265e-03, 5.33519574e-02,
       4.12562713e-02, 3.07620242e-02, -3.00015975e-03, 1.46283675e-03,
       -2.16195732e-02, -2.56412439e-02, -1.43890921e-02,
       -2.23076772e-02, -7.92372972e-03, 2.55302452e-02, 2.76399590e-02,
       2.42405999e-02, 8.88127368e-03, -1.91598348e-02, -1.50897652e-02,
       -2.71374173e-02, -2.90019847e-02, -1.95104964e-02,
       -2.47555226e-03, 5.36988780e-04, 3.46960016e-02, 2.97643128e-03,
       -1.23888757e-02, 1.99617948e-02, 2.73823701e-02, 1.03266444e-02,
       6.02841303e-02, 7.18809739e-02, 4.42344733e-02, 2.44579893e-02,
       -4.24901880e-02, -7.29038641e-02, -1.11499541e-02, 1.93693675e-02,
       -5.53281652e-03, 1.95385888e-02, 9.32145864e-03, -4.34365647e-04,
       3.68321058e-03, 4.88546211e-03, -1.15881395e-02, -4.15686658e-03,
       -1.39386998e-02, -7.27759255e-03, -3.52210831e-03, 8.23361333e-03,
       -6.17283117e-03, 3.38737853e-02, 1.60908680e-02, -4.20289114e-03,
       -9.23640281e-03, 1.99781414e-02, -3.96018382e-03, -3.63832340e-02,
       8.01220443e-03, -6.79290574e-03, 3.50200646e-02, -1.01708882e-02,
       -1.14911199e-02, 5.46585862e-03, -1.10028526e-02, -4.32980955e-02,
       -8.99371691e-03, 7.43495720e-03, -9.41174850e-03, 2.00067945e-02,
       1.78560372e-02, -7.38931727e-03, 1.13469912e-02, 3.11046317e-02,
       -3.86203155e-02, 1.33529790e-02, -1.17322952e-02, -3.61963138e-02,
       3.30812763e-03, 6.71657827e-03, -2.38798670e-02, -6.22262945e-03,
       4.74432157e-03, 2.04421636e-02, -1.21629816e-02, -4.25749421e-02,
       -2.51468290e-02, 8.90152901e-03, 1.41419526e-02, 2.11329688e-03,
       -4.41668322e-03, 1.73705276e-02, 2.14599017e-02, 2.20819619e-02,
       -3.59872878e-02, -1.31226825e-02, 4.50240187e-02, 4.13609594e-02,
       -1.92514379e-02, 1.11830961e-02, 2.76904972e-03, 2.05657277e-02,
       2.24725138e-02, -4.67570797e-02, -2.78988890e-02, 1.91582516e-02,
       3.37649025e-02, 1.78631395e-02, 1.41893830e-02, 3.26548554e-02,
       -2.42852848e-02, 4.16419283e-02, -2.17514299e-02, -1.50801642e-02,
       3.30793522e-02, -4.06631045e-02, -1.58047304e-02, 1.27430204e-02,
       -7.99207203e-03, -2.12660227e-02, -4.36276607e-02,
       -3.51057090e-02, -6.90074712e-02, -3.50263901e-02, 3.56201306e-02,
       1.68502349e-02, 5.02718166e-02, 2.33554859e-02, 1.08190132e-02,
       -7.09721539e-03, -2.11324375e-02, -2.43391935e-02, 2.12917067e-02,
       -1.10212034e-02, -4.97313868e-03, 7.15863779e-02, 8.44837353e-02,
       1.63220782e-02, -7.89003447e-03, -1.23156672e-02, -5.13090305e-02,
       -2.84836423e-02, 3.45728472e-02, 7.49442205e-02, 1.11414328e-01,
       9.87733528e-02, 1.88213177e-02, 1.19923716e-02, 1.12825595e-02,
       8.38584499e-04, 7.78350839e-03, 1.49837704e-02, -8.28610675e-04,
       -1.11369258e-02, -4.95838784e-02, -2.12293696e-02,
       -5.01460731e-02, -2.27394383e-02, 2.78110411e-02, 3.11015882e-02,
       -2.93833949e-02, 2.46897759e-03, 1.08092334e-02, -5.41880354e-02,
       1.29998494e-02, -6.15491644e-02, -5.85003011e-03, 4.43607159e-02,
       1.99275278e-02, 3.65428329e-02, 7.35422298e-02, 4.35248613e-02,
       5.72668156e-04, -1.85455270e-02, -2.66772173e-02, 9.44573805e-03,
       5.09762019e-02, 6.85574412e-02, -2.27770507e-02, 1.77579559e-02,
       2.96490379e-02, 8.49523209e-03, 4.30447273e-02, -5.20322248e-02,
       3.69711220e-02, 7.23589137e-02, 4.43180688e-02, -2.15268172e-02,
       1.02191128e-01, 1.42085359e-01, 5.10184243e-02, -3.11772171e-02,
       -3.23734693e-02, -2.30581295e-02, 1.08652776e-02, -5.57587668e-02,
       -4.78749117e-03, 6.70169666e-02, 6.94257244e-02, -3.69643345e-02,
       -1.71085279e-02, -5.82692921e-02, -5.83726838e-02,
       -4.51691337e-02, -6.49567321e-02, -3.16854157e-02, 5.48219942e-02,
       1.37414381e-01, 8.26189592e-02, -9.38777998e-03, -2.00770255e-02,
       2.84106117e-02, 3.99232544e-02, -1.56348292e-02, -4.11744229e-02,
       -8.28735810e-03, 5.75426817e-02, -3.59944142e-02, 6.08787593e-03,
       -3.69277187e-02, -6.47387886e-03, -4.31265235e-02,
       -7.51349106e-02, 2.10450832e-02, 1.08589299e-01, 3.33910473e-02,
       -9.09316167e-03, -3.98240499e-02, -1.14972051e-02,
       -1.00117493e-02, 1.51394848e-02, -1.81885678e-02, 9.41430498e-03,
       7.28479698e-02, -7.18420511e-03, -2.59650145e-02, -2.97802151e-03,
       -2.90902238e-02, -7.65039772e-03, 1.04689533e-02, -2.35780440e-02,
       -1.90345626e-02, 4.20720465e-02, 4.84300777e-03, -4.65952717e-02,
       -5.30112498e-02, -3.29806632e-03, -1.95784291e-04,
       -1.64276658e-04, -7.68829286e-02, 4.14506346e-03, -8.47722869e-03,
       -4.44264710e-02, -8.49423856e-02, -4.87353653e-03,
       -4.44734246e-02, -4.40680943e-02, -2.41273548e-02,
       -2.56159268e-02, 4.08672318e-02, 7.56077990e-02, -7.60880904e-03,
       -2.09404416e-02, -4.31671105e-02, -1.71733182e-02, 1.90967228e-03,
       4.44709398e-02, 1.18886102e-02, 3.69781218e-02, 5.10196127e-02,
       6.97499840e-04, -1.07359290e-02, -4.17126007e-02, -1.23182368e-02,
       1.55328214e-03, 4.18557227e-02, -2.48834938e-02, 3.19330692e-02,
       1.55536048e-02, -2.67063249e-02, -4.88582365e-02, -1.11431507e-02,
       -4.08177339e-02, -2.99576372e-02, 2.85910815e-02, -2.90339603e-03,
       8.91567953e-03, 7.42538460e-03, -2.30481923e-02, -3.62934060e-02,
       -1.73559878e-02, -4.45074998e-02, -2.85529736e-02, 1.39998151e-02,
       -2.49718428e-02, 3.22945677e-02, 8.01078305e-02, -3.87494895e-03,
       1.65258925e-02, -2.91655622e-02, 2.09019091e-02, 1.05346665e-02,
       2.37672515e-02, 6.79512043e-03, 3.31962034e-02, 6.65773675e-02,
       -3.78014036e-02, -3.26987207e-02, -4.73201601e-03, 1.62462685e-02,
       1.86366327e-02, -2.70546842e-02, -3.62780876e-02, 2.90924753e-03,
       1.07471133e-02, -2.30877884e-02, -2.34372076e-02, -2.44806912e-02,
       -8.45949259e-03, 2.42120516e-03, -7.09254018e-05, -1.65237207e-02,
       6.41125208e-03, -5.05700102e-03, -3.96789275e-02, -4.37294170e-02,
       1.25068119e-02, -2.01950339e-03, -1.38472980e-02, -2.33171992e-02,
       -2.13543382e-02, 5.93920089e-02, 9.64549705e-02, 1.56052993e-04,
       -3.12535726e-02, 1.40877217e-02, 8.28055944e-03, -1.52784204e-02,
       6.70451857e-03, -3.00412113e-03, 4.81775366e-02, 3.81028652e-02,
       -5.86190121e-03, -1.45189781e-02, -6.41816482e-03, 6.80318242e-03,
       -1.79105271e-02, 3.58194672e-02, 3.64708379e-02, 1.66810174e-02,
       1.74237527e-02, -1.10876244e-02, -1.31109990e-02, 4.60204610e-04,
       1.81004424e-02, 1.40348477e-02, 1.89299583e-02, -2.80139390e-02,
       -6.66705379e-03, -1.34675333e-03, -2.39706803e-02,
       -5.13795316e-02, 2.06382433e-03, -5.10344375e-03, -2.20419350e-03,
       -4.02823137e-03, -1.80915147e-02, 5.35777435e-02, 2.08841003e-02,
       -2.20645554e-02, -1.84085257e-02, 3.00207525e-03, 9.18106292e-04,
       -1.00083537e-02, 6.52912408e-02, 7.55548030e-02, 3.21917608e-02,
       1.76518839e-02, -3.50145511e-02, -9.26481374e-03, 3.51229385e-02,
       1.76204685e-02, -1.72413364e-02, 2.02580355e-02, 2.50387806e-02,
       -1.31158335e-02, -2.07373109e-02, -4.66825850e-02,
       -5.03836162e-02, -2.81322133e-02, -8.53353366e-03,
       -2.08797380e-02, 5.09997644e-03, 3.83223109e-02, -1.90691035e-02,
       -2.36405078e-02, -3.33279558e-02, -3.92635167e-02,
       -1.71511881e-02, 7.54301297e-03, -5.26792035e-02, -2.48252344e-03,
       8.25141091e-03, 1.09254094e-02, 3.68153267e-02, -2.47775912e-02,
       -2.22266931e-03, 3.85220605e-03, 8.85341875e-03, -1.78945437e-02,
       2.03016438e-02, -1.53262196e-02, -1.56981610e-02, 2.38559302e-02,
       -3.46960574e-02, -2.40868106e-02, -6.93773339e-03,
       -2.51840129e-02, -5.48694842e-02, -3.35684558e-03,
       -1.39876418e-02, -3.52027896e-03, 2.59001050e-02, -1.45063000e-02,
       -2.06661522e-02, -1.28431637e-02, -2.01199539e-02,
       -2.56987810e-02, 2.42088903e-02, 6.21412939e-04, -8.26020818e-03,
       2.98130009e-02, -1.70793608e-02, -6.17373697e-02, -2.37174183e-02,
       -7.64760599e-02, -5.01458831e-02, 1.13752950e-02, -5.97326762e-05,
       -1.55772467e-03, 8.55961535e-03, -5.75435460e-02, -5.27476519e-02,
       -3.67532298e-02, -2.81800143e-02, -3.76007929e-02,
       -1.15935737e-03, -1.15627786e-02, 7.12038158e-03, 1.10108871e-02,
       -4.28697057e-02, -2.21617986e-02, -1.21346032e-02,
       -3.98348160e-02, -3.71543467e-02, -1.38090840e-02,
       -1.16301347e-02, 1.18554840e-02, 5.02349548e-02, -4.64479513e-02,
       -6.13192506e-02, -4.26017344e-02, -6.15084879e-02,
       -2.73728985e-02, -2.42035347e-03, -8.22255015e-03, 1.68913715e-02,
       2.29669344e-02, -4.92426418e-02, -4.03107740e-02, -1.90920699e-02,
       -5.48515618e-02, -3.00628208e-02, -4.57244692e-03, 2.73201987e-03,
       6.64813025e-03, 1.93322729e-02, -2.06859168e-02, -4.92756302e-03,
       -6.46316027e-03, -2.52158828e-02, -4.32166718e-02,
       -2.11254787e-02, -3.68218799e-03, 4.33120207e-04, 9.68621857e-03,
       -9.26215108e-03, -2.59213499e-03, -1.60873588e-02,
       -2.94064153e-02, -1.42106656e-02, -1.34348134e-02,
       -2.22320436e-03, 3.24159302e-02, 3.14567834e-02, -3.47827449e-02,
       -5.58152273e-02, -3.42228413e-02, -4.32198457e-02,
       -3.64897810e-02, 2.58476250e-02, 5.71244508e-02, 2.54109055e-02,
       2.82504391e-02, -1.04238736e-02, -2.05572993e-02, -2.39312984e-02,
       -4.51218486e-02, -2.98110247e-02, 4.04994898e-02, 6.28488138e-02,
       8.68261734e-04, 3.48081142e-02, 1.60404555e-02, 1.53738342e-03,
       3.36632342e-03, 1.16920704e-02, -7.81062385e-03, 3.97376809e-03,
       3.35149430e-02, -3.54350135e-02, 3.87714710e-03, 8.44433904e-03,
       -2.41864696e-02, -1.38743464e-02, -1.37697533e-02, 1.72357005e-03,
       8.29138793e-03, -2.08219383e-02, 3.22382897e-02, 6.06802143e-02,
       5.51635213e-02, 3.49307880e-02, 1.49803907e-02, 1.01917912e-03,
       -1.36263287e-02, 4.94914725e-02, 5.49514443e-02, -3.38274240e-03,
       5.66701069e-02, 8.07512254e-02, 2.61860210e-02, 2.60511003e-02,
       3.77417393e-02, 1.70805957e-03, 4.16137539e-02, -6.64235232e-03,
       -1.80445611e-02, -2.13303417e-03, 1.72743108e-02, 1.17626581e-02,
       3.28238192e-03, 4.23679389e-02, 2.83901431e-02, 8.63054488e-03,
       3.36281792e-03, -4.31867689e-02, -6.58232644e-02, -3.88759188e-02,
       -4.66088131e-02, -2.59997696e-02, 7.06380699e-04, -3.02260332e-02,
       -4.32501473e-02, -2.84063257e-02, 5.10276621e-03, 6.37207478e-02,
       4.61750254e-02, 4.54790816e-02, 8.64375755e-02, 9.74550247e-02,
       6.63141087e-02, 6.19994923e-02, 2.02707089e-02, -4.12029400e-02,
       -3.89581732e-02, -3.78850661e-02, -2.02212166e-02, 3.65675874e-02,
       1.47749530e-02, -4.86780964e-02, -5.87680899e-02, -1.70620729e-03,
       -6.71472028e-03, 3.38454917e-03, 2.71508750e-03, -1.79374497e-02,
       -1.60017982e-02, -2.48298631e-03, -1.97358653e-02,
       -2.04353910e-02, -6.46729546e-04, -1.95923187e-02,
       -1.55363418e-02, -1.10755628e-02, 5.92562603e-03, -1.77196544e-02,
       1.63238216e-02, -1.63150951e-02, -4.71374840e-02, -1.21952631e-02,
       -2.15430465e-02, -3.40441801e-02, -1.81656219e-02, 3.25895776e-03,
       -7.45943561e-03, 3.45409960e-02, -2.10963301e-02, -2.28429586e-02,
       3.69614502e-03, -2.91947201e-02, -5.59758544e-02, -1.60197113e-02,
       1.55742597e-02, -7.36507587e-03, 3.73893939e-02, -7.69532472e-03,
       -2.62593720e-02, -1.39138810e-02, 4.39399853e-02, -4.06040475e-02,
       -5.03187887e-02, -1.24385282e-02, -1.48540679e-02, 1.60860922e-03,
       -5.10709956e-02, -4.14789803e-02, 3.72336730e-02, 3.94142270e-02,
       -2.53656283e-02, -2.23170761e-02, 4.33835760e-02, 1.32137518e-02,
       2.61294954e-02, -1.78711340e-02, -3.42507921e-02, 4.02238779e-02,
       1.65143348e-02, -7.26967305e-03, -4.90376614e-02, -1.14407325e-02,
       3.17214690e-02, -9.98247229e-03, -2.27535591e-02, -1.94734037e-02,
       5.15752807e-02, 1.93762165e-02, -4.53566317e-04, -4.39610099e-03,
       4.25193682e-02, 4.91640680e-02, 3.63733396e-02, 3.14041902e-03,
       -3.52776274e-02, 3.66048962e-02, -4.69764359e-02, -5.57395555e-02,
       2.07472537e-02, 5.74868396e-02, 3.60464342e-02, 2.79691629e-02,
       8.16370943e-04, -5.43055385e-02, -7.01173842e-02, -2.52409512e-03,
       5.06856591e-02, 1.00480616e-01, 1.01206221e-01, 3.94543782e-02,
       4.02563736e-02, 3.59434821e-02, -1.24855470e-02, -3.75020765e-02,
       -7.68677294e-02, -7.15892315e-02, -7.77190831e-03, 2.92679071e-02,
       6.06174432e-02, 6.19831011e-02, 2.83217747e-02, -3.54845040e-02,
       -3.18240374e-02, -3.77045013e-02, -1.93168316e-02, 3.08201257e-02,
       4.66613173e-02, 1.49727939e-02, 6.39960095e-02, 8.02629963e-02,
       3.91062535e-02, -2.04526214e-03, 3.19103859e-02, 3.58379446e-02,
       5.82858222e-03, 1.38579719e-02, -4.29024734e-02, -1.56929810e-02,
       -1.85985735e-03, 2.29536667e-02, 4.37510908e-02, -1.46795325e-02,
       2.07769172e-03, 1.71691235e-02, -1.01667708e-02, 1.04197180e-02,
       -1.79809667e-02, 6.51778700e-03, 3.43568698e-02, 1.00031225e-02,
       3.30869779e-02, 1.36467842e-02, 3.41707771e-03, -2.67435424e-02,
       -3.33691537e-02, 5.80495736e-03, 2.95587094e-03, 3.37033421e-02,
       3.03729679e-02, 1.42163420e-02, 3.58434655e-02, 3.95007320e-02,
       -2.92463917e-02, 5.70488907e-02, -2.25147605e-02, 6.65678084e-03,
       -9.62566957e-03, -2.29216721e-02, -3.39243896e-02, 3.82383950e-02,
       9.51578319e-02, 7.07587078e-02, -7.95302840e-05, 3.93841229e-02,
       6.35984540e-02, 3.94874550e-02, -2.78612059e-02, -7.15343505e-02,
       -3.60371433e-02, 1.65780038e-02, -1.45229837e-02, 1.33061977e-02,
       -1.03780888e-02, 1.89338364e-02, -4.53999974e-02, -6.85281530e-02,
       -3.09377387e-02, 4.15058620e-02, 7.42257163e-02, 3.31041738e-02,
       3.18266824e-02, 7.42285252e-02, 1.12706617e-01, 2.55069472e-02,
       -4.07193638e-02, -7.43925571e-02, -3.47237661e-02,
       -1.45536556e-03, -2.06846949e-02, 4.50583324e-02, -2.34437790e-02,
       9.09800455e-03, -6.46711290e-02, -7.55154118e-02, -4.05815765e-02,
       3.28527056e-02, 1.76083967e-02, -1.06979553e-02, -4.49520610e-02,
       4.42164540e-02, 3.66932563e-02, 3.02470028e-02, -4.60678376e-02,
       2.84186954e-05, 5.40621171e-04, -2.04875395e-02, -2.88617909e-02,
       -1.58284733e-03, -4.78605088e-03, 3.99737386e-03, 3.69619168e-02,
       -4.43897583e-03, -4.65088636e-02, 1.65643916e-02, 2.25246921e-02,
       5.14438469e-03, -6.37169257e-02, -3.89669160e-03, 1.73784643e-02,
       3.19073200e-02, -4.20138687e-02, -3.52529027e-02, 1.19040422e-02,
       -1.21065686e-02, -1.01979068e-02, -4.38357592e-02,
       -4.55567874e-02, -2.34367456e-02, 5.60093671e-03, -2.81527173e-02,
       3.94063629e-03, 2.04775110e-03, 6.50874851e-03, 1.04428222e-02,
       1.15902647e-02, 1.21410107e-02, 5.81326138e-04, 2.29218453e-02,
       1.11946641e-02, -4.26364243e-02, 1.34623274e-02, -7.58237205e-03,
       3.29277222e-03, -6.14579022e-03, 4.69653215e-03, -7.82499369e-03,
       -1.07425451e-03, -3.66973318e-02, 1.91211619e-03, 4.71018478e-02,
       1.11549546e-03, 1.04995845e-02, 1.44122038e-02, -1.32302735e-02,
       -7.55992578e-03, 1.99130969e-03, -1.58262625e-02, -1.69979688e-02,
       2.26185620e-02, 6.24545198e-03, -2.07113121e-02, 1.74671598e-02,
       6.48771925e-03, -1.21946605e-02, -3.92917469e-02, -2.28219237e-02,
       -4.70970795e-02, -3.65240825e-03, -1.00486651e-02, 3.22513543e-02,
       1.14732431e-02, 3.00628152e-02, 2.34585088e-02, 2.18642950e-02,
       -3.87033187e-02, -2.75547411e-02, -3.77966389e-02,
       -1.42734591e-02, 1.02065895e-02, 3.60776670e-02, 4.09766100e-02,
       1.83683168e-02, 2.76867431e-02, -2.88356543e-02, -3.66068929e-02,
       -1.88271180e-02, -1.41393451e-04, 1.39594264e-02, 2.07897555e-02,
       3.59881558e-02, 4.56729531e-03, 4.43044351e-03, -3.51064727e-02,
       -3.46346013e-02, -2.18066331e-02, 4.25499585e-03, 2.80043334e-02,
       1.96273960e-02, 2.82906275e-02, 4.46453551e-03, 7.11162481e-03,
       -3.82945910e-02, -2.24989690e-02, 3.45811155e-03, 2.12762486e-02,
       4.66035753e-02, 5.46771698e-02, 7.22888485e-02, 2.46877167e-02,
       4.21124995e-02, -4.16577905e-02, -7.55288173e-03, 3.31541733e-03,
       5.93595766e-03, 1.62966195e-02, 5.35505712e-02, 2.96937358e-02,
       2.13541929e-02, 1.52687281e-02, -4.53856997e-02, -1.32064056e-02,
       3.39903533e-02, 3.31162699e-02, 5.27556390e-02, 5.79954647e-02,
       2.24628057e-02, 3.68549931e-03, 1.07614659e-02, -3.70598622e-02,
       -2.90436298e-02, 3.40598030e-03, 3.06770504e-02, 1.85707118e-02,
       4.11077626e-02, 1.40250092e-02, 2.08756817e-03, 1.37073535e-03,
       -4.08172309e-02, -3.91755886e-02, 2.23518815e-04, -2.77175126e-03,
       -7.89107103e-03, -1.01119680e-02, 2.38177609e-02, -8.39166529e-03,
       3.15832347e-02, 1.23111950e-03, -1.39531232e-02, 3.82587351e-02,
       1.43678151e-02, -8.55600741e-03, 9.98448231e-04, 3.18109021e-02,
       -2.97001060e-02, 1.34816971e-02, -6.58089807e-03, 1.53341349e-02,
       1.27867796e-02, -3.98860360e-03, 2.84977746e-03, 4.21303697e-03,
       6.02636626e-03, -7.60888041e-04, 4.58335690e-02, -2.15887539e-02,
       3.64419748e-03, 3.45608976e-04, -2.48417966e-02, -5.95815433e-03,
       7.77671300e-03, -2.23398165e-04, 1.73064489e-02, 3.47314849e-02,
       4.68976656e-03, -1.46273002e-02, 5.38340583e-02, 8.71032476e-03,
       -1.36014828e-02, -7.27961259e-03, -5.71994437e-03,
       -2.24921536e-02, 3.21461223e-02, -2.67098867e-03, -2.31384374e-02,
       6.89654872e-02, 2.73594260e-03, -4.50811945e-02, -1.50366277e-02,
       -4.78076376e-02, -2.49264333e-02, 5.74447401e-02, -1.54914828e-02,
       2.03644428e-02, 1.21890279e-02, -1.51578626e-02, -1.25713786e-02,
       1.12737352e-02, 1.08151548e-02, 1.58991665e-02, 4.14268449e-02,
       2.95994636e-02, -7.67027400e-03, 3.95686924e-02, -1.40701784e-02,
       -2.44254898e-02, -1.47252250e-02, -3.10555734e-02, 2.09682863e-02,
       5.81514016e-02, 3.88385146e-03, -1.14425989e-02, 5.60283475e-02,
       -2.38637980e-02, -3.08507569e-02, -1.74030345e-02,
       -5.12335934e-02, -2.34856401e-02, 3.17148753e-02, -2.91871689e-02,
       -5.62650105e-03, 5.09950407e-02, -4.41363901e-02, -2.70876084e-02,
       -3.35335685e-03, -4.55879010e-02, -2.24770177e-02, 1.00761717e-02,
       -1.52521562e-02, -1.77091472e-02, 2.07511224e-02, -2.71003935e-02,
       -3.93807441e-02, 3.78419354e-04, -3.73937711e-02, -7.08387187e-03,
       6.04273789e-02, 1.73260667e-03, -1.55435847e-02, -9.27982759e-03,
       -5.32320812e-02, -3.95028926e-02, 9.29772109e-03, -5.12522087e-02,
       -4.37070914e-02, 3.25183608e-02, -1.17305359e-02, 3.81207140e-03,
       2.84828674e-02, -3.07426527e-02, -3.84202749e-02, -1.42387757e-02,
       -3.61146107e-02, -2.95357350e-02, 1.02552548e-02, 2.93963943e-02,
       2.35788189e-02, 5.76225575e-03, -1.11099044e-02, -1.63832046e-02,
       -3.40429619e-02, -2.43668258e-02, -2.27814019e-02, 2.73291990e-02,
       5.18608652e-02, 1.83148980e-02, -1.68870594e-02, -5.36110587e-02,
       -4.29030024e-02, -1.75268147e-02, -3.70743647e-02,
       -1.90435331e-02, 4.11314256e-02, 3.51591432e-03, 4.30359282e-02,
       1.67897623e-02, -4.82504396e-03, -2.05653906e-02, -3.14754359e-02,
       -1.91521663e-02, 1.45975817e-02, 2.75028180e-02, 2.30945349e-02,
       9.39347409e-03, 6.86812866e-03, 2.34950352e-02, 7.31678633e-03,
       3.42863868e-03, 6.76402403e-03, -2.65236050e-02, 3.04669514e-02,
       5.00168949e-02, -1.44132562e-02, 3.14115621e-02, 4.05854322e-02,
       2.39427295e-02, 1.64849814e-02, 2.43291967e-02, -4.76406749e-05,
       2.28108112e-02, 1.24061126e-02, 1.26599940e-02, 2.57643126e-02,
       2.29098238e-02, 1.21435504e-02, 8.37488938e-03, -1.21080792e-02,
       9.25885700e-03, 8.95810314e-03, 1.29014431e-02, -1.13028446e-02,
       2.23673396e-02, 3.69545259e-02, 1.99215990e-02, 2.58769095e-02,
       7.49190571e-03, 1.72165576e-02, 2.01987661e-02, 3.49315517e-02,
       -1.15816370e-02, 3.33096907e-02, 1.64687205e-02, 4.72866520e-02,
       9.86870751e-02, 7.75277019e-02, 2.38337610e-02, 3.52507494e-02,
       4.00973763e-03, -4.61376496e-02, -5.01762368e-02, -4.02197354e-02,
       -1.86342858e-02, 3.67462300e-02, -6.83334330e-03, -2.18270775e-02,
       -5.61675653e-02, -2.93491315e-02, 1.89229171e-03, 1.36044808e-02,
       2.54960191e-02, 8.51374716e-02, 8.75130817e-02, 6.64739460e-02,
       2.25298088e-02, 2.76623871e-02, 2.61661150e-02, -4.95883748e-02,
       -4.65841778e-02, -7.82073382e-03, 1.34926103e-02, 3.54184508e-02,
       -2.18594056e-02, -3.93712819e-02, -5.59475236e-02,
       -6.57810047e-02, 1.13684367e-02, -1.50487600e-02, 1.95923913e-03,
       2.38334369e-02, -1.84599962e-02, 3.03625315e-02, 2.08350066e-02,
       -8.16660281e-03, 6.62876759e-03, 1.43099036e-02, -2.17260048e-02,
       1.38230231e-02, 1.66094620e-02, -4.60879132e-02, 2.47408878e-02,
       2.18650103e-02, 6.16292562e-03, -3.62658501e-03, 1.37864957e-02,
       -3.25833564e-03, 3.69363949e-02, 3.79327536e-02, 1.30407652e-02,
       2.79036034e-02, 1.00737140e-02, -1.98201854e-02, -5.39454690e-04,
       3.41659933e-02, -6.70422148e-03, 3.98173220e-02, 1.38908485e-02,
       -3.68420705e-02, -1.00792688e-03, 2.01490000e-02, -2.18246412e-02,
       3.04876789e-02, 3.30059677e-02, -8.09533522e-03, -3.90433446e-02,
       -1.68851428e-02, 2.55286116e-02, -7.89248571e-03, -1.22160306e-02,
       -3.04358043e-02, 2.12447699e-02, 1.96446963e-02, -6.36336766e-03,
       -3.03049609e-02, 6.23682560e-03, 1.21416561e-02, 1.84557736e-02,
       -9.65161435e-03, -1.87055822e-02, -2.58785067e-03, 1.65018551e-02,
       -2.61590797e-02, -1.89860202e-02, 2.45627738e-03, 2.39731763e-02,
       1.91485509e-02, -1.19191012e-03, -3.89058553e-02, -6.69829687e-03,
       2.13896595e-02, 7.03014433e-03, 2.60049826e-03, 2.34796330e-02,
       1.77861601e-02, -1.00835152e-02, 5.37821930e-03, -7.04143522e-03,
       -1.53469201e-03, -5.11931069e-02, -6.25205338e-02,
       -4.39185351e-02, -2.65105199e-02, 2.72961147e-02, 6.12229928e-02,
       4.29258309e-02, 2.42465641e-03, -9.63831693e-03, -2.43688162e-04,
       -7.06963101e-03, 1.83618499e-03, -1.31102651e-02, -2.27076630e-03,
       8.44300315e-02, 9.93966535e-02, 1.11462288e-01, 8.98541138e-02,
       -2.62249690e-02, -6.08602576e-02, -4.19463478e-02,
       -2.49620192e-02, 1.24660134e-02, -3.13403434e-03, 6.97761355e-03,
       -1.62678622e-02, -2.01243702e-02, 8.60845263e-04, -1.35599282e-02,
       -2.05452368e-02, -2.17084773e-02, -5.87433064e-03, 3.27786878e-02,
       5.14655784e-02, 6.80999830e-02, 5.43200001e-02, 5.94146587e-02,
       4.06289399e-02, 1.94915722e-03, -5.11912480e-02, -4.19710428e-02,
       -2.62017502e-03, 1.03303250e-02, 7.09351078e-02, 5.72927967e-02,
       4.19814773e-02, 7.44031742e-02, 4.95186448e-02, -4.06905673e-02,
       -9.20775067e-03, 1.46269351e-02, 3.27826366e-02, 6.47418248e-03,
       -3.45694646e-02, 1.28246006e-02, 5.17340153e-02, 4.01275884e-03,
       -4.41312082e-02, -1.95886511e-02, -3.54954526e-02,
       -1.08154071e-02, 2.44128127e-02, 2.77080834e-02, 2.30207993e-03,
       4.21474800e-02, 1.65471677e-02, -3.50529775e-02, -3.01605999e-03,
       -2.95465589e-02, 9.96702933e-04, -1.23470100e-02, -3.16514671e-02,
       -3.37453373e-02, 4.24637385e-02, 3.27675492e-02, -3.47445090e-03,
       -3.22655961e-02, 1.01370685e-01, 1.70728028e-01, 8.69285315e-02,
       -4.04708944e-02, -9.37757790e-02, -5.45827262e-02,
       -5.60996346e-02, -7.03241229e-02, -7.62465782e-03,
       -9.25769750e-03, 6.78016692e-02, 1.32237216e-02, -3.59861031e-02,
       -3.50664109e-02, 1.53993461e-02, -4.36754525e-03, -3.75218391e-02,
       -4.06427123e-02, 6.45217150e-02, 1.41564265e-01, 1.16862424e-01,
       -1.75153534e-03, -7.88907334e-02, -4.57916446e-02,
       -5.29196002e-02, -6.85794428e-02, -2.29815696e-03,
       -4.56343107e-02, 5.27370833e-02, 7.99209923e-02, 8.21752101e-03,
       -3.86797003e-02, 6.20961236e-03, -1.59262009e-02, -3.62972170e-02,
       -5.70267998e-02, -5.65515831e-02, -8.41664150e-03, 4.63051908e-02,
       3.12826573e-03, -1.44903166e-02, -4.01400495e-03, -2.93762609e-02,
       -4.18329388e-02, -7.39804609e-03, -7.69992992e-02,
       -4.82148714e-02, -2.40160730e-02, 1.42957205e-02, -2.62164585e-02,
       6.83708163e-03, 7.50652107e-04, -3.23454551e-02, -2.58931126e-02,
       -2.37564277e-02, 2.02349760e-02, 1.01551093e-01, 4.90514822e-02,
       -2.13041324e-02, 4.10665572e-03, 1.73518192e-02, -2.87545323e-02,
       2.33070329e-02, -4.56514433e-02, -7.03515325e-05, 4.05722558e-02,
       2.10083220e-02, -1.24151921e-02, 1.71022657e-02, -2.17051934e-02,
       -3.49769518e-02, -1.87316909e-02, -4.16073576e-02,
       -3.90898734e-02, 1.25839207e-02, 1.59694478e-02, -3.61205218e-03,
       3.10450932e-03, -2.31712162e-02, -5.66013791e-02, -2.75616180e-02,
       -4.81948629e-02, -2.11866535e-02, 5.92465454e-04, -1.33454101e-04,
       1.82850454e-02, 4.79626544e-02, 2.60312650e-02, -4.76470031e-03,
       -7.68606551e-03, -1.29446164e-02, -1.17535610e-03, 6.41266406e-02,
       1.79558340e-02, 4.53815446e-04, 5.05299680e-02, 1.64958108e-02,
       -1.99885704e-02, -1.45883663e-02, -1.95540302e-02,
       -1.33046089e-02, 4.71076518e-02, 3.40543166e-02, -1.34961177e-02,
       -4.35236841e-03, -2.92111561e-03, 5.40695293e-03, -2.10866611e-02,
       -1.05230547e-02, -9.77431424e-03, 1.30521189e-02, -8.26740731e-03,
       -1.10062826e-02, -1.05409436e-02, -3.81665607e-03, 6.40969677e-03,
       -1.22983409e-02, -1.63925136e-03, 1.04652101e-03, 1.03735831e-02,
       -9.71083250e-03, 3.68899405e-02, 1.67727079e-02, 4.25982103e-03,
       -2.04303525e-02, -3.63726541e-02, -1.00489417e-02, 1.27842166e-02,
       9.60397720e-02, 4.15424444e-02, -1.13454098e-02, 2.97678052e-04,
       1.57578699e-02, -6.45864243e-03, -3.32361571e-02, -3.78559344e-02,
       7.86361750e-04, 4.58383895e-02, 3.20198350e-02, -8.56168475e-03,
       1.71436034e-02, -6.76138559e-04, 9.32180882e-03, -5.33683272e-03,
       -2.46132445e-02, -1.96237657e-02, 1.14877429e-02, -6.32164208e-03,
       -2.60285791e-02, 1.12802470e-02, 1.68822531e-03, -1.24349026e-03,
       1.78554598e-02, -2.06926446e-02, -4.63374965e-02, -1.95448175e-02,
       -4.41357754e-02, 1.25725204e-02, 1.32464971e-02, -3.94652262e-02,
       -7.77971745e-03, 1.55483466e-02, -3.66572551e-02, -1.18021891e-02,
       7.41343051e-02, 4.72424179e-02, 1.45148961e-02, 3.89597900e-02,
       -1.01821087e-02, -2.16874341e-03, 1.97431934e-03, -1.04727503e-02,
       -2.27562096e-02, 3.47618423e-02, 2.26621479e-02, 3.08101904e-03,
       1.92129500e-02, -1.07060131e-02, -1.48951290e-02, -4.07752134e-02,
       -3.51127982e-02, -5.90833649e-02, 1.52679570e-02, -3.91939729e-02,
       9.93113127e-03, -2.31722984e-02, -5.40963337e-02, -7.14815455e-03,
       2.70969729e-04, -4.77345772e-02, -3.36935110e-02, -1.00995060e-02,
       4.17316239e-03, 4.60042469e-02, 6.46594986e-02, 1.17574977e-02,
       1.06364572e-02, -3.19858664e-03, 2.95774895e-03, -3.42301950e-02,
       4.10091355e-02, 3.66589986e-02, 2.14612596e-02, -9.97741427e-03,
       -2.07370371e-02, -2.60153483e-03, 2.18405202e-02, -2.68650409e-02,
       -2.69816220e-02, 1.54382959e-02, 3.75747494e-02, 1.55453486e-02,
       1.81846693e-03, -4.61725891e-02, -3.71803828e-02, -2.31227390e-02,
       -3.21231037e-02, -2.83936318e-02, -9.43018880e-04, 2.71264873e-02,
       1.48391267e-02, -5.82992239e-03, -5.41868508e-02, -5.57652414e-02,
       -2.69051623e-02, -5.88391721e-02, -2.18886826e-02, 2.09158510e-02,
       7.81153794e-03, 3.14918645e-02, 3.22219334e-03, -3.75668965e-02,
       -2.39161029e-02, -5.73491864e-03, -1.19964909e-02,
       -1.37551818e-02, 8.03474616e-03, 2.38868967e-02, 4.68016881e-03,
       -1.05596660e-02, -6.67909607e-02, -4.83528450e-02, 7.52482051e-03,
       -4.30947915e-02, -1.18408548e-02, 6.40985230e-03, -4.07963470e-02,
       4.87499963e-03, -8.21434427e-03, -4.45454717e-02, -2.55295504e-02,
       -5.86329773e-03, -6.23646416e-02, -3.11118979e-02, 4.78739887e-02,
       2.94878390e-02, 2.28574257e-02, -1.21775707e-02, -4.86760251e-02,
       -2.09873803e-02, -2.36136448e-02, -3.95819545e-02,
       -4.36026379e-02, 1.13630239e-02, 1.74267925e-02, -2.57732673e-03,
       -2.03239117e-02, -6.22316860e-02, -2.02818736e-02, 1.59506630e-02,
       -6.78164959e-02, -3.14446352e-02, -1.68012418e-02,
       -2.30972599e-02, 3.81348561e-03, -2.91258078e-02, -1.91117674e-02,
       7.65712932e-03, 1.38412407e-02, -1.46976765e-02, -5.28610609e-02,
       -1.33916009e-02, 4.21080552e-03, 4.73296940e-02, 1.80237275e-02,
       -3.92402150e-02, -4.52015549e-02, -5.08330949e-02,
       -1.84385106e-02, -2.74250247e-02, 2.40825545e-02, 3.35889459e-02,
       5.25802597e-02, 1.69112068e-02, -2.64752805e-02, -4.02077027e-02,
       -4.81715053e-02, -2.78665368e-02, 1.91238103e-03, 2.85159852e-02,
       2.56813578e-02, -2.69161370e-02, -1.30149070e-02, -3.31068709e-02,
       5.37002692e-03, -4.98056412e-03, 1.68020912e-02, -8.04163795e-03,
       -2.64790957e-03, 1.57120219e-03, -1.09636262e-02, -2.15530861e-02,
       -4.66034822e-02, 7.42662838e-03, -1.23645440e-02, -5.95039781e-03,
       -3.35016265e-03, -1.94258820e-02, 5.65627404e-03, 2.57475991e-02,
       3.76945771e-02, 6.10406464e-03, 1.63457636e-02, 1.13356467e-02,
       1.15690967e-02, 3.80087718e-02, 4.02029268e-02, 4.00920063e-02,
       -2.71061659e-02, 6.50627911e-02, 4.27692989e-03, 1.58127426e-04,
       4.92646173e-03, 2.32304409e-02, 3.43892798e-02, 2.63862312e-02,
       2.20622998e-02, 7.62789370e-03, -3.90945747e-03, -2.68369783e-02,
       3.94125246e-02, 2.55253315e-02, 3.30916652e-03, 2.54009943e-02,
       2.20995527e-02, 7.14911846e-04, -2.00730991e-02, 3.05747949e-02,
       -7.02130515e-03, -8.54745228e-03, 4.49993135e-03, -6.26521651e-03,
       1.11695454e-02, -2.47830199e-03, -2.41209678e-02, 6.63459580e-03,
       4.32815887e-02, 4.03692089e-02, 7.28159100e-02, 6.79171011e-02,
       3.89435627e-02, 2.62594614e-02, 2.85523199e-02, 3.67279314e-02,
       -1.10632908e-02, -6.30073249e-02, -3.22666503e-02, 2.97436081e-02,
       3.78212370e-02, -4.57744971e-02, -2.60856766e-02, -3.45196314e-02,
       -2.37959307e-02, 1.99173335e-02, 2.67460048e-02, 2.68379357e-02,
       4.54731733e-02, 3.74990935e-03, 1.89034566e-02, 2.63220891e-02,
       -8.93268920e-03, 6.18764374e-04, -3.88633683e-02, -4.05104645e-02,
       -7.07621220e-03, 1.81877688e-02, -5.47084492e-03, -5.01385815e-02,
       -1.37029989e-02, -4.49898578e-02, -3.20716910e-02, 1.86043382e-02,
       -3.17278057e-02, 1.11678895e-02, 3.85340936e-02, 2.42194254e-03,
       2.38238368e-03, -1.47407660e-02, -1.96549911e-02, 2.93713855e-03,
       -2.21591536e-03, -5.93263097e-02, 8.36207066e-03, 2.25204639e-02,
       -1.48616843e-02, 2.13015568e-03, -2.27302443e-02, -5.35939634e-02,
       -1.57818217e-02, 1.49315922e-02, -1.93359777e-02, 1.95463225e-02,
       2.51009408e-02, 9.96640138e-03, 2.38823816e-02, 2.70787869e-02,
       1.35486135e-02, 2.41030790e-02, 4.25373390e-03, -2.68456805e-02,
       2.41962913e-02, 2.76921634e-02, -1.31476466e-02, 1.72674078e-02,
       -9.73542873e-03, -2.14025043e-02, 8.88157915e-03, 1.39064360e-02,
       -5.14596701e-02, -4.57905382e-02, -7.37438817e-03,
       -1.59524493e-02, -1.01004457e-02, -2.91342102e-02,
       -4.60831933e-02, -9.37988702e-03, 3.00036017e-02, -3.35890497e-03,
       -9.83926747e-03, -1.07532404e-02, -1.11880926e-02,
       -1.43102761e-02, -1.83923226e-02, -3.56242321e-02, 7.19117420e-03,
       2.73252055e-02, -3.32695432e-02, -5.17794527e-02, 2.70880070e-02,
       1.55864353e-03, 4.24674824e-02, -1.39943846e-02, -1.50417918e-02,
       3.01979613e-02, 2.86208391e-02, -3.31931468e-03, -2.37013754e-02,
       5.67975780e-03, 1.66653085e-03, 2.55885776e-02, 2.26987693e-02,
       3.79959121e-02, 4.58760448e-02, 2.48718052e-03, -2.79587079e-02,
       -2.32235063e-02, -8.47302563e-03, 2.14945022e-02, -2.50072796e-02,
       -1.45836286e-02, -4.19156402e-02, -1.93819571e-02, 6.07063156e-03,
       -2.41131671e-02, -1.71672590e-02, -1.36552164e-02,
       -1.81293804e-02, -8.66931397e-03, -9.79756657e-03,
       -1.93660483e-02, 5.90288965e-03, 3.28948535e-02, -1.64923556e-02,
       -2.16814149e-02, 6.72117667e-03, 3.95010523e-02, -1.55729204e-02,
       -2.02652011e-02, -3.30392868e-05, 2.61586197e-02, 2.75341626e-02,
       1.52933393e-02, -1.49446935e-03, -1.98029466e-02, -3.55063588e-03,
       -4.88580251e-03, -2.06469130e-02, 7.94997904e-05, 1.32310120e-02,
       -2.15215981e-02, 1.76957867e-03, -3.23233055e-03, -1.21343918e-02,
       9.55673680e-03, -3.07478895e-03, -1.16833718e-02, 1.01734977e-02,
       -3.57864914e-03, -3.85178924e-02, 3.54968430e-03, 1.12808086e-02,
       -2.69160653e-03, 1.40127353e-02, -1.71370935e-02, -1.21157113e-02,
       -1.02301349e-03, -4.72104326e-02, 3.26341600e-03, -5.51176351e-03,
       1.83296278e-02, 6.52319100e-03, 2.95315348e-02, 1.35194967e-02,
       -7.60944281e-03, 9.17383563e-03, 7.72306649e-03, -1.05335247e-02,
       7.29644578e-03, 2.19795387e-02, -2.58910283e-02, 3.96702737e-02,
       -3.32338288e-02, 5.82024129e-03, -9.26072709e-04, -3.24555673e-03,
       -3.00059728e-02, 2.38929708e-02, 2.67855767e-02, 1.72043254e-03,
       -4.37499657e-02, -1.24053424e-02, 4.66842689e-02, 5.46464622e-02,
       -1.07258307e-02, -5.11476658e-02, -3.58780473e-02,
       -6.39766827e-03, -5.22736274e-03, -2.78156977e-02,
       -4.09824811e-02, 1.25025352e-02, 7.13971630e-02, 3.86354048e-03,
       -2.16831826e-02, 5.35475183e-03, 3.22277062e-02, -5.51662780e-03,
       -1.96159799e-02, -4.01879288e-02, 1.42982835e-02, 6.16655510e-04,
       -1.53417327e-02, -2.44408082e-02, -5.12987599e-02,
       -2.15164889e-02, 1.46805367e-03, 1.63121168e-02, -1.45364394e-02,
       -2.35858634e-02, 4.68362262e-03, -3.52037931e-03, -2.97108591e-02,
       4.78890754e-04, -8.21938179e-03, -7.98211060e-03, -3.29818465e-02,
       -4.41289358e-02, -2.96960911e-03, 8.69776532e-02, 3.51169929e-02,
       -3.99929285e-02, -6.15649670e-03, -2.10985728e-02,
       -2.66065449e-02, 1.11068143e-02, -3.26982848e-02, -2.38735462e-03,
       3.90347317e-02, 1.37567865e-02, 1.30312014e-02, -1.35972332e-02,
       -8.83949269e-03, 1.91090461e-02, 6.46596716e-04, -3.34146433e-02,
       -8.28931294e-03, 2.04467401e-02, 1.44217431e-03, 1.28375543e-02,
       -2.33734157e-02, -2.78509818e-02, 3.96925118e-03, -4.13865130e-03,
       -4.84674051e-02, -3.31534334e-02, -6.83523901e-03,
       -1.27541099e-03, -3.21035050e-02, 1.88189689e-02, 7.27096619e-03,
       3.65160480e-02, 2.99110860e-02, -1.02589244e-03, -1.37717859e-03,
       6.02088124e-02, 2.30156835e-02, -3.06887701e-02, -1.04915537e-02,
       -2.91773141e-03, 8.56348220e-03, 1.48147380e-03, 6.14167936e-03,
       -1.91966742e-02, 1.50075387e-02, 1.25126885e-02, 1.07762665e-02,
       2.71368232e-02, -2.08346769e-02, 3.34404148e-02, 2.34670490e-02,
       -6.16322085e-03, -2.44206171e-02, 4.15092111e-02, 2.77531594e-02,
       -2.25839820e-02, -8.69364757e-03, -2.05843765e-02,
       -1.48097577e-03, -1.80134214e-02, -2.03687530e-02,
       -3.33286785e-02, 2.02972796e-02, 1.23281283e-02, 1.15241958e-02,
       -8.16147402e-03, -2.57357629e-03, 9.54885327e-04, 1.75592396e-02,
       3.38376909e-02, 1.55147240e-02, 5.14138825e-02, 2.35064663e-02,
       -3.45017208e-04, 4.82773595e-03, -7.89681356e-03, -3.25242989e-02,
       -1.64377503e-03, 1.91375054e-03, -1.98166841e-03, 2.19127536e-02,
       7.97971711e-03, 2.57155672e-03, -1.16651040e-02, -1.44979879e-02,
       7.59122521e-03, 4.80178222e-02, 1.60269383e-02, -5.79239428e-03,
       1.26316007e-02, -9.58872144e-04, 4.00103303e-03, -6.25850214e-03,
       -1.27142239e-02, -5.39026177e-03, 1.37575017e-02, -8.06120224e-03,
       1.75346732e-02, -2.15713140e-02, 3.29796155e-03, 4.19398490e-03,
       2.19797213e-02, -3.43713462e-02, -9.21413954e-03, 2.00760625e-02,
       1.89226028e-02, -7.33734760e-03, 3.95443514e-02, 3.84091847e-02,
       1.84395500e-02, 2.13334598e-02, -9.12233721e-03, 2.29961500e-02,
       4.10151295e-03, 1.68789327e-02, 6.07097847e-03, 4.17912789e-02,
       6.54218579e-03, 2.02844162e-02, 3.42492051e-02, -1.57737900e-02,
       -1.75351016e-02, -9.94889904e-03, -1.85392820e-03,
       -9.37223341e-03, -3.81955393e-02, 6.04199944e-04, -8.13161582e-03,
       1.16579998e-02, -2.05377652e-03, -2.19955351e-02, -1.46033207e-03,
       -1.27731832e-02, -1.34199560e-02, -1.49375619e-02, 2.68840464e-03,
       1.96187403e-02, 2.13466585e-02, 2.23757941e-02, 3.00559737e-02,
       1.60847828e-02, 4.93868738e-02, 2.34096628e-02, 6.60457835e-02,
       8.64413660e-03, 3.41777457e-03, -9.49052721e-03, -4.98940889e-03,
       5.45277726e-03, 2.15647053e-02, 3.26066017e-02, 1.50913734e-03,
       4.46415553e-03, 1.58086158e-02, 1.11302854e-02, -1.25193857e-02,
       -1.11804921e-02, -1.03881711e-03, -7.91317504e-03,
       -7.06017716e-03, -1.17087495e-02, 4.69608326e-03, -4.41293279e-03,
       -2.16554049e-02, -2.28680894e-02, -7.94709288e-03,
       -2.13902649e-02, 4.72042337e-03, 1.23194065e-02, -3.49394642e-02,
       -2.37361472e-02, 5.06570144e-03, -3.17893401e-02, 3.45226657e-03,
       -1.92540307e-02, 1.70175321e-02, 1.11597199e-02, 3.02887205e-02,
       -1.15803387e-02, 3.00175324e-02, 1.66216679e-02, -1.70521159e-03,
       7.39809452e-03, -9.92242061e-03, 2.38361116e-02, 2.07033623e-02,
       -2.84840632e-03, -8.54762364e-03, 1.29486267e-02, -2.01984923e-02,
       -4.18476649e-02, -1.22341118e-03, -2.39680652e-02,
       -8.33470561e-03, -3.72555852e-02, 5.85059542e-03, -4.01959568e-02,
       -2.55974662e-02, 1.33461850e-02, -2.40635872e-02, -3.53311817e-03,
       -6.06375746e-04, 1.97512060e-02, -1.42605174e-02, -9.89051163e-03,
       -3.92956249e-02, 4.14823182e-03, 1.50854606e-03, 3.85115593e-04,
       4.97944541e-02, 2.28470825e-02, 3.96651402e-02, -4.14405018e-03,
       -2.17217244e-02, 8.08991771e-03, 1.80056188e-02, -1.87446852e-03,
       -1.08583877e-02, 2.32361630e-02, 3.54495482e-03, 2.60844491e-02,
       -1.51570113e-02, 1.75471343e-02, 1.34954704e-02, 1.25746503e-02,
       -1.58855524e-02, -2.45024879e-02, 1.96349379e-02, -6.03228435e-03,
       2.63989363e-02, -1.52039593e-02, -1.91379972e-02, -1.50538608e-02,
       3.31479833e-02, -2.10208353e-02, -3.92709710e-02, 2.59519629e-02,
       -2.59652138e-02, 5.85688325e-03, -2.02744920e-02, 1.38760097e-02,
       5.68775181e-03, -1.07743079e-02, -5.18371984e-02, -3.19446586e-02,
       2.35825405e-02, -1.96735207e-02, 1.61606595e-02, -1.40868523e-03,
       6.14838004e-02, 1.73470955e-02, 2.91713756e-02, 1.71383992e-02,
       -1.60287358e-02, -7.80106150e-03, -5.34747401e-03, 3.10448390e-02,
       9.17499326e-03, 1.46837700e-02, 1.27633670e-02, 2.01263763e-02,
       -1.06623035e-03, 5.47733577e-03, 7.51088746e-03, -1.07415477e-02,
       -1.69271212e-02, -6.86447928e-03, 2.40198541e-02, 1.83615666e-02,
       -1.83173723e-03, 3.50376056e-03, -2.21748557e-03, -3.68735343e-02,
       -2.52137966e-02, -2.74949018e-02, -2.12489627e-02,
       -1.54074598e-02, 2.86030513e-03, 1.54622132e-02, -1.39274979e-02,
       1.35170678e-02, 1.00074708e-02, 1.01227080e-02, 6.82097301e-02,
       1.25135118e-02, 3.00190430e-02, 4.46092561e-02, 4.13038768e-02,
       2.97784433e-03, 2.33191927e-03, 3.69311422e-02, 1.25224069e-02,
       4.90342826e-02, -3.02433819e-02, 3.06759449e-03, 9.27268993e-03,
       3.24481376e-03, -6.87259948e-03, 7.58427894e-03, -1.46139450e-02,
       -1.25956787e-02, -1.45505695e-02, -3.33830006e-02,
       -7.18946150e-03, -7.94726366e-04, 1.83463432e-02, -3.05360015e-02,
       -9.96420439e-03, -1.72238871e-02, -6.15171902e-03, 1.40114659e-02,
       -3.76100205e-02, 1.55189622e-03, -3.13369781e-02, -8.66905693e-03,
       -2.57140654e-03, 2.13086382e-02, 4.04932164e-02, 3.12908739e-02,
       7.84112737e-02, -7.64055736e-03, 6.23182347e-03, 1.78245772e-02,
       -4.25659679e-03, 3.06720007e-03, -2.13535558e-02, -6.28930284e-03,
       -1.52725978e-02, 3.27147804e-02, -4.76372568e-03, -2.64440719e-02,
       -6.83577778e-03, -5.77645414e-02, -4.53423150e-02, 9.02317837e-03,
       -4.46628034e-03, 1.19370315e-03, 1.82546377e-02, 3.95878917e-03,
       -1.52598741e-02, -4.85854270e-03, -1.09766517e-02, 6.03113510e-03,
       2.27442998e-02, -1.46094719e-02, -4.34240289e-02, -2.46269815e-02,
       -1.91426035e-02, -2.92973109e-02, -1.08892974e-02,
       -2.46822722e-02, 1.28447190e-02, 2.04910035e-03, -3.16774705e-03,
       3.64540867e-03, -1.33141847e-02, -2.24907342e-02, 1.31532848e-02,
       3.00288424e-02, -2.53756568e-02, -1.32561838e-02, -1.13014877e-02,
       -1.74156353e-02, -2.32314365e-03, -4.93531465e-04,
       -4.59758043e-02, 3.26256566e-02, -3.66996834e-03, -3.62255201e-02,
       -1.03699015e-02, 4.20683809e-02, 1.19038513e-02, -8.35064624e-04,
       -1.24463141e-02, -3.25739048e-02, 3.64037976e-02, 2.00493801e-02,
       -1.04039852e-02, 1.93905775e-02, 2.52046585e-02, 1.84171612e-03,
       -8.68991076e-04, -5.43733942e-04, 3.15257721e-03, 4.39412221e-02,
       1.31840557e-02, -3.29343416e-02, 1.49654849e-02, 1.89363752e-02,
       -4.10200544e-02, -5.60087785e-02, -3.14669237e-02, 1.91521291e-02,
       2.11351886e-02, -1.15156202e-02, -3.05808596e-02, 2.67616548e-02,
       1.12969626e-03, -6.11145562e-03, 2.67916895e-03, -3.52937868e-03,
       -2.05132850e-02, 1.18016880e-02, 1.67568494e-02, -3.01915477e-03,
       4.00507636e-03, 3.29377837e-02, -2.96351984e-02, -1.05857467e-02,
       2.30485294e-02, 2.68817116e-02, 2.95532262e-03, -3.38081494e-02,
       -6.33321926e-02, 7.03285262e-03, -9.87269566e-04, 9.61053930e-03,
       4.31275414e-03, 4.32177186e-02, -6.45387499e-03, 1.06495190e-02,
       1.11556277e-02, -2.82821730e-02, 8.25905334e-03, -1.08824214e-02,
       -1.15006529e-02, -3.37662431e-03, 2.61711497e-02, 8.34385748e-04,
       -3.56666301e-03, -6.83661923e-03, -9.17877723e-03,
       -1.39435343e-02, 3.18478188e-03, 8.81420542e-03, -6.45232899e-03,
       1.08656958e-02, 2.61758431e-03, 2.65400056e-02, 8.22907139e-04,
       6.95197232e-05, 7.89720938e-03, -3.16764577e-03, -1.12471252e-03,
       -2.04723887e-02, 1.57843251e-02, 1.72561314e-02, 1.38853500e-02,
       1.43500548e-02, -2.73252074e-02, -1.35864504e-02, 1.60157345e-02,
       2.22770143e-02, 1.11039421e-02, 2.42653303e-02, 7.03580561e-04,
       2.04610992e-02, 3.60518917e-02, 8.35195277e-03, 3.99191119e-03,
       -2.47285143e-02, 8.16049520e-03, -9.02458443e-04, 5.45534864e-03,
       1.56233115e-02, 7.63571076e-03, -1.29940100e-02, 2.59718895e-02,
       -2.63729841e-02, -3.52923037e-03, 1.12028820e-02, 1.97436265e-03,
       -2.12337729e-02, 2.74807550e-02, -2.56195385e-02, -2.11790856e-02,
       1.23745797e-03, -3.69119756e-02, -2.48530618e-04, 3.26305144e-02,
       2.78815236e-02, 2.25405954e-02, 4.18711547e-03, 1.65346283e-02,
       6.33717747e-03, 3.38999033e-02, 7.24407844e-03, 3.70307080e-02,
       4.01517786e-02, -6.58870954e-03, -1.25136496e-02, 1.10389628e-02,
       -1.06459856e-02, -2.00387593e-02, 1.79014038e-02, 1.45501932e-02,
       -7.82769825e-03, 9.95247159e-03, 8.59621540e-03, -6.13479316e-03,
       1.47599715e-03, 1.50881670e-02, 9.43034235e-03, 6.84810861e-04,
       -1.82666220e-02, -2.39763409e-02, -1.82853173e-02,
       -9.79622174e-03, -3.09771090e-03, 4.46905801e-03, 1.95933040e-03,
       -4.31161523e-02, -4.75417450e-02, -3.23718488e-02, 2.40579564e-02,
       1.11807203e-02, -1.36906728e-02, -1.61834490e-02, -5.31130843e-03,
       2.05384791e-02, 7.04244571e-03, 2.67203823e-02, 1.03424713e-02,
       -7.53912237e-03, -5.04343491e-03, 3.20106349e-03, 2.87460326e-03,
       2.33128369e-02, -4.50202450e-03, -3.95743921e-02, -1.26210535e-02,
       -6.58206502e-03, 2.54253838e-02, 4.82754298e-02, 1.92599688e-02,
       2.06508767e-02, 1.76220555e-02, 9.26636043e-04, -2.80484352e-02,
       1.52314361e-02, -7.56985229e-03, 2.59287450e-02, 2.28800494e-02,
       -1.90819474e-03, 2.83144158e-03, 7.69815501e-03, -1.01742307e-02,
       -3.49556990e-02, -7.62974564e-03, -2.29507331e-02, 1.95538159e-02,
       3.97400856e-02, -1.48789417e-02, 1.62616314e-03, 2.81697116e-03,
       1.63636990e-02, -4.21033539e-02, 2.01082993e-02, -1.87340833e-03,
       2.49533467e-02, 2.74742860e-02, -3.18865068e-02, -2.74174083e-02,
       6.79011177e-03, -8.38726107e-03, -5.67460693e-02, 6.38341298e-04,
       3.46862245e-03, 3.04861553e-03, 3.47248912e-02, -6.08300138e-03,
       3.81916724e-02, 2.43652780e-02, 2.48036124e-02, -3.41329835e-02,
       2.99244002e-02, 1.80888586e-02, -1.90112758e-02, -1.77459978e-03,
       -2.40790695e-02, -3.18680145e-02, -3.24027948e-02, 5.30971168e-03,
       -2.25144774e-02, 2.40554158e-02, -1.19570633e-02, 1.25871217e-02,
       2.17815209e-02, -1.89529266e-02, 8.95442162e-03, 3.98452394e-02,
       3.91747616e-02, -4.36307117e-02, -2.05589626e-02, -5.08842291e-03,
       1.53420568e-02, 4.45459643e-03, -9.32016037e-03, -2.11771969e-02,
       2.32571382e-02, 3.72971147e-02, -2.81201582e-02, -3.63602974e-02,
       -1.77262947e-02, -1.60103384e-02, -2.54977052e-03,
       -1.10382764e-02, 8.54333304e-03, 2.12470740e-02, 2.22727843e-02,
       -2.00171918e-02, 1.64954793e-02, -3.47874798e-02, -2.11013630e-02,
       -6.76026521e-03, -3.96630615e-02, -1.14638200e-02,
       -1.90195143e-02, -2.73000877e-02, -1.45143634e-02,
       -2.54023559e-02, -1.95855349e-02, 3.63110602e-02, 3.01311128e-02,
       -1.46904485e-02, 2.87429779e-03, 7.62453023e-03, 4.10317034e-02,
       -2.26154756e-02, -1.77125596e-02, 2.96521396e-03, -2.61679199e-03,
       1.26041444e-02, -4.56786230e-02, -3.07328273e-02, -3.30389068e-02,
       1.94898387e-03, -3.53996605e-02, -2.74981745e-02, 9.16217454e-03,
       7.26428954e-03, 5.16931824e-02, 1.03819175e-02, 1.57780889e-02,
       9.78712691e-04, 2.18135007e-02, 1.44081423e-03, -1.57390162e-02,
       7.75053492e-03, -1.52233653e-02, 2.27686707e-02, 1.30864931e-02,
       -1.72931403e-02, -1.77385155e-02, -5.09609981e-03, 4.81367111e-04,
       -7.79283512e-03, -1.07182227e-02, 1.43276379e-02, 3.53380479e-02,
       -3.21912766e-03, 1.93058327e-02, 8.23472254e-03, 1.37243001e-03,
       -2.82275490e-03, 9.67475295e-04, 1.34164384e-02, -2.57347338e-03,
       1.44564798e-02, -1.93285383e-02, 1.35545889e-02, 5.62671944e-03,
       -6.50544371e-03, -1.47658288e-02, -2.06267685e-02, 1.31291458e-02,
       -1.36965280e-02, 3.51646799e-03, 1.18503310e-02, -8.61397886e-04,
       -1.81513336e-02, -4.41369694e-03, 1.03583536e-03, -2.11870158e-03,
       -1.04591222e-02, -2.48981602e-02, -1.29520362e-02,
       -8.66422988e-03, -2.20981371e-02, -2.64384737e-03,
       -4.48054355e-03, -1.28374370e-02, -2.25668140e-02,
       -3.66729349e-02, 1.64756121e-03, 5.01075713e-03, -1.24722319e-02,
       1.52276941e-02, 1.66162252e-02, 2.93466542e-02, 7.80655071e-03,
       -2.42372025e-02, -1.75778158e-02, -1.59856249e-02,
       -1.51912784e-02, -3.14241834e-02, -8.10462516e-03, 2.85119265e-02,
       3.91826928e-02, -7.48479366e-03, -9.52256843e-03, -3.48518379e-02,
       -2.81001139e-03, 8.91697500e-03, 3.98659334e-03, 2.83871056e-03,
       -1.87580790e-02, 3.63912396e-02, -4.77099232e-03, 1.14009185e-02,
       8.76011560e-04, -1.45406071e-02, -1.47020479e-03, -6.77518034e-03,
       -6.36268174e-03, -1.98079441e-02, 2.00953893e-02, -6.03661733e-03,
       3.07813492e-02, -7.20464252e-03, 3.68190669e-02, 3.20267379e-02,
       -2.52544638e-02, 1.06437402e-02, -2.12484114e-02, 2.15828884e-02,
       -2.16086674e-02, -6.48950401e-04, -1.27489129e-02, 2.46255007e-03,
       1.35873137e-02, -3.84540260e-02, 4.32550209e-03, -1.33578843e-02,
       -6.42842427e-03, -5.53594902e-02, -2.95700133e-02,
       -6.62708515e-03, -6.82839192e-03, 3.18747386e-02, -1.03389369e-02,
       1.51153305e-03, 1.53720798e-03, 3.30674723e-02, 2.28403546e-02,
       3.29278447e-02, -8.17568321e-03, -1.90138817e-02, 3.24679539e-02,
       -1.11625427e-02, 3.20704188e-03, -1.91650353e-02, 4.14020531e-02,
       2.59281378e-02, 1.25722319e-03, -3.73899378e-02, 1.64845877e-03,
       1.38031831e-03, -2.23400593e-02, 1.35463746e-02, -1.19546624e-02,
       3.40283364e-02, -2.21726988e-02, -2.82870755e-02, -5.39871957e-03,
       -8.91248323e-03, 1.90489609e-02, -1.44555075e-02, 5.30180056e-03,
       -4.17808220e-02, 2.64617968e-02, -1.91965830e-02, -3.73564363e-02,
       -1.97806563e-02, -1.18468823e-02, 1.02090407e-02, -4.44041518e-03,
       7.31295161e-03, -2.15445994e-03, 2.72819456e-02, 1.30913835e-02,
       2.26439722e-03, -1.65164489e-02, -1.50976907e-02, -4.21703747e-03,
       -1.70357432e-02, -8.74453865e-04, -4.28160932e-03,
       -6.23654807e-03, 1.15044620e-02, 2.78848130e-03, -1.80276036e-02,
       -1.86114870e-02, 1.10390726e-02, -2.23735292e-02, -9.93508752e-03,
       -1.17237261e-02, 2.50281449e-02, -9.41259973e-03, -2.33254172e-02,
       -2.36766338e-02, -6.28783274e-03, -3.55736702e-03,
       -3.80645469e-02, -1.26341321e-02, -1.87587310e-02,
       -4.50169342e-03, -2.55813319e-02, -8.50959588e-03,
       -1.99589301e-02, -6.30316883e-03, 8.03437270e-03, 1.32612111e-02,
       3.46349142e-02, 2.03459319e-02, 2.21307930e-02, 2.26952154e-02,
       2.87342463e-02, -1.24561973e-02, -2.57204082e-02, -2.41993219e-02,
       -1.03185521e-02, -8.02963600e-03, -2.29772590e-02,
       -1.33253552e-03, 1.40239783e-02, 9.06953216e-03, -2.45282948e-02,
       1.06366258e-02, 1.11001078e-02, -2.60272827e-02, 2.64244829e-03,
       1.12607498e-02, 1.21720685e-02, -5.21192374e-03, 1.88700928e-04,
       -5.57139609e-03, -3.52735817e-02, -6.54942589e-04,
       -2.36621704e-02, -1.61190163e-02, 5.75416908e-03, 6.29748171e-03,
       -1.12616997e-02, -1.67450886e-02, -2.29234323e-02, 3.00196558e-02,
       -4.03315248e-03, -1.52207278e-02, -2.03304160e-02,
       -2.31161620e-03, 6.04090281e-03, 2.62980480e-02, 3.64576131e-02,
       1.63629055e-02, 1.89061575e-02, -3.06441598e-02, -3.15698944e-02,
       -5.74641349e-03, -8.95445980e-03, 1.81398075e-02, -5.32241585e-03,
       -1.28308581e-02, 2.44627940e-03, -1.02107450e-02, 2.67872382e-02,
       -2.69895531e-02, -2.91495863e-02, 1.79646574e-02, 2.36699283e-02,
       1.75087843e-02, 2.62374766e-02, 2.97987158e-03, -1.65738445e-02,
       -9.92875639e-03, -1.83620341e-02, 8.17491859e-03, 1.40514392e-02,
       2.43507512e-02, 1.05274562e-02, -1.49946716e-02, -2.37106103e-02,
       4.76456480e-03, -2.94404328e-02, -7.98339397e-03, 2.86358390e-02,
       -3.16758305e-02, -1.49404686e-02, -2.53204089e-02,
       -3.42976227e-02, -9.49027482e-04, 1.85735673e-02, -8.55674315e-03,
       -5.54314582e-03, 4.65379050e-03, -1.73519296e-03, 2.53881270e-04,
       -1.18480111e-02, -4.20098603e-02, -5.61604369e-03, 6.61591825e-04,
       -1.79099164e-03, -1.52269192e-02, 1.74698606e-02, -4.52467129e-02,
       7.71604769e-04, -3.09982486e-02, -3.13754156e-02, -4.81776986e-03,
       4.97463495e-02, -1.22511936e-02, -1.72051303e-02, -3.71120237e-02,
       -1.89372781e-03, 2.64458153e-02, -1.17307883e-02, -3.28089446e-02,
       2.15497259e-02, -7.33579040e-01 ]
