%YAML:1.0
---
myHogDector1: !!opencv-object-detector-hog
   winSize: [ 64, 128 ]
   blockSize: [ 16, 16 ]
   blockStride: [ 8, 8 ]
   cellSize: [ 8, 8 ]
   nbins: 9
   derivAperture: 1
   winSigma: 4.
   histogramNormType: 0
   L2HysThreshold: 2.0000000000000001e-01
   gammaCorrection: 1
   nlevels: 64
   signedGradient: 0
   SVMDetector: [ 1.38079375e-02, -3.62049714e-02, -4.17753235e-02,
       4.16827295e-03, 6.40400080e-03, -1.82868950e-02, 6.09815167e-03,
       -1.97914080e-03, 4.76166513e-03, 5.04892878e-02, -8.17732047e-03,
       -1.02328435e-02, -2.24277247e-02, 4.45528282e-03, 3.21727768e-02,
       1.06051126e-02, 1.94199868e-02, 2.23346818e-02, 1.36159919e-02,
       -3.65484394e-02, -7.41924811e-03, 1.54937161e-02, 6.44726329e-04,
       -3.81999351e-02, -2.37299763e-02, -1.46246832e-02, 2.52515892e-04,
       1.66323073e-02, -3.02405446e-03, 2.45001689e-02, 2.59479899e-02,
       1.34196198e-02, 1.42717240e-02, 1.74778849e-02, 1.33658918e-02,
       -2.31163949e-02, 2.12669820e-02, -2.32181381e-02, -1.81991924e-02,
       -5.27708884e-03, 3.02727167e-02, 3.03244572e-02, 3.09913373e-03,
       8.17039143e-03, 1.96743719e-02, 9.08675313e-04, 3.34013887e-02,
       2.19078921e-02, 3.01085934e-02, -6.72172569e-03, 2.13572625e-02,
       2.05908972e-03, 1.10812299e-02, -1.41533045e-02, 1.19570484e-02,
       2.46302946e-03, -4.46282467e-03, 2.03903634e-02, 2.76918504e-02,
       1.96748339e-02, -5.29396487e-03, -3.87675036e-03, 1.10312935e-03,
       2.33948100e-02, 3.98317864e-03, -1.66428797e-02, 7.11587491e-05,
       -1.30424993e-02, 2.64302325e-02, -4.33975784e-03, -5.56528685e-04,
       3.17520760e-02, 1.87229421e-02, 3.60440537e-02, 2.00443659e-02,
       3.53701483e-03, -3.00929286e-02, -1.06517198e-02, -1.80356503e-02,
       7.28145288e-03, -1.75990164e-02, 1.39334258e-02, 2.71775573e-02,
       9.44966823e-03, -1.24577330e-02, 2.61421725e-02, 3.77227808e-03,
       3.58556164e-03, 7.77032645e-03, 6.05718512e-03, -5.39323268e-03,
       3.38401571e-02, -9.85580031e-04, -2.47759596e-02, -2.37061847e-02,
       -1.12018362e-02, 1.20217144e-03, 1.22951530e-03, -1.60968974e-02,
       1.34642213e-03, -5.68332849e-03, -1.69929415e-02, -1.78197138e-02,
       -1.55925490e-02, -1.85796453e-05, 2.29013953e-02, 2.02350668e-03,
       -5.35308383e-04, 1.45991649e-02, 3.80392820e-02, 6.24800194e-03,
       -3.69425700e-03, 2.05360018e-02, 1.51728317e-02, 1.77684762e-02,
       -2.14616191e-02, -2.99176797e-02, 5.09893103e-03, 2.59026717e-02,
       -1.07058361e-02, 1.42043279e-02, -1.22723365e-02, 1.85029097e-02,
       1.40841603e-02, -3.21539305e-02, -3.63295786e-02, -5.99973975e-03,
       -1.16651263e-02, -9.16698482e-03, 1.15988934e-02, 8.46326724e-03,
       8.65608733e-03, 2.88254116e-02, 6.85667736e-04, 7.71737949e-04,
       -1.42265055e-02, -2.32383385e-02, 3.33749410e-03, 4.15450521e-03,
       7.43290037e-03, 9.01120901e-03, -3.37110879e-03, -4.69311289e-02,
       -1.24943107e-02, -4.58890107e-03, 1.95741858e-02, -2.03001890e-02,
       1.20183844e-02, -5.26600750e-03, 1.10090524e-03, 9.47961025e-03,
       2.94103916e-03, -3.18784378e-02, 2.99370778e-03, -2.48798467e-02,
       -5.37396483e-02, -1.99015737e-02, -9.61643178e-03,
       -2.27802116e-02, -9.93146189e-03, 2.08270922e-02, -2.23026704e-02,
       -3.97011498e-03, 2.47053094e-02, -1.11955032e-02, 1.24102971e-03,
       4.35884297e-03, 4.13755421e-03, -1.09207639e-02, -4.71761310e-03,
       -4.41288715e-03, -3.12637873e-02, -8.75468366e-03,
       -2.85033099e-02, -1.60905626e-02, 3.93435964e-03, 7.61532807e-04,
       1.61828037e-04, 2.86976267e-02, -1.27480011e-02, -3.18690971e-03,
       -2.05379147e-02, -4.37855758e-02, 1.69197060e-02, 1.97683997e-03,
       1.99254276e-03, -4.49858699e-03, 2.55907513e-02, 2.39109271e-03,
       -3.40201519e-02, -1.43414643e-02, -2.46971622e-02, 2.47258157e-03,
       -1.80335585e-02, -4.94246185e-02, -2.79879235e-02,
       -5.33515308e-03, -1.45324515e-02, 4.38440451e-03, 2.95258630e-02,
       -1.88052859e-02, 3.48833725e-02, 1.75630506e-02, 3.81770507e-02,
       -2.55218917e-03, 4.59441431e-02, 1.42497616e-03, -1.17732193e-02,
       2.72343513e-02, 1.86559779e-03, -1.83395855e-02, 3.85452923e-03,
       -1.11658927e-02, -1.15367230e-02, 8.38067196e-03, -2.23781969e-02,
       -2.94401702e-02, 5.45025850e-03, -1.57901496e-02, 1.26976641e-02,
       1.76571496e-02, -9.78402328e-03, -3.30342539e-02, 2.08425540e-02,
       1.80730037e-02, -4.43746969e-02, -1.46868359e-02, -2.13007443e-02,
       7.66145531e-03, -1.20832436e-02, -2.51658615e-02, -7.87848234e-02,
       2.59033125e-02, 1.07950706e-03, -1.30387573e-02, 6.80119358e-03,
       -6.60092803e-03, -8.81478935e-03, 1.92537121e-02, 1.06001580e-02,
       -7.96516240e-03, 4.08376977e-02, -2.08082679e-03, -2.74704248e-02,
       -3.35166231e-03, 8.59377068e-03, -3.49589661e-02, -1.63700525e-02,
       2.86396383e-03, -4.93669435e-02, 2.45809425e-02, -7.61233550e-03,
       -2.44646519e-02, -5.63922385e-03, -1.71236042e-02, 8.48342199e-03,
       2.66785584e-02, 3.20125185e-02, -2.87559014e-02, 3.02737877e-02,
       7.28740473e-04, -8.87469796e-04, 6.85371552e-03, -3.59259099e-02,
       -3.33698057e-02, 3.51970247e-03, 2.23440845e-02, -2.31378060e-02,
       3.90481539e-02, -1.08750872e-02, -2.91650696e-03, 2.09971964e-02,
       3.24630216e-02, 1.71139892e-02, 2.28613429e-03, 3.44198234e-02,
       4.71789017e-03, 4.27404232e-02, 5.65407006e-03, 2.67130625e-03,
       5.04924171e-03, -7.55368685e-03, -1.19619230e-02, -2.28384826e-02,
       5.02245734e-03, -3.10314674e-04, 3.08410265e-02, -1.10260714e-02,
       -2.51151398e-02, -1.73750073e-02, -1.33748455e-02, 2.18661074e-02,
       -2.80996412e-02, 2.19200761e-03, -2.03998126e-02, 2.96666566e-02,
       8.22842401e-03, -1.69286132e-02, -1.96758099e-03, -1.19712558e-02,
       3.35253999e-02, 4.41297237e-03, -3.72074544e-02, -2.53997557e-02,
       3.19955172e-03, -1.91409066e-02, -1.20121064e-02, 8.64444580e-03,
       -5.73039800e-03, 1.48993416e-03, -1.65213328e-02, 3.73762537e-04,
       1.06791139e-03, 2.80871075e-02, -8.80980119e-03, -3.87404785e-02,
       -9.72308777e-03, 6.32151589e-03, 6.92398986e-03, -1.23776812e-02,
       -1.62498988e-02, -6.84313988e-03, -5.88655984e-03,
       -3.96919586e-02, 9.80237313e-03, 1.12286424e-02, -2.00830791e-02,
       2.26491764e-02, -8.89854692e-03, 1.30543923e-02, -1.28455916e-02,
       8.31802189e-03, -3.09719704e-03, 1.05532128e-02, -1.95156049e-03,
       -4.82283458e-02, -1.00695640e-02, 3.73069234e-02, 3.68310474e-02,
       -3.61266360e-02, -1.12417284e-02, -1.12447245e-02, 1.02083664e-02,
       3.74699235e-02, 3.72916125e-02, 4.67306897e-02, -1.43703502e-02,
       2.21587382e-02, 1.08877495e-02, 1.81384664e-02, -1.85402986e-02,
       -2.28077173e-02, 1.56245520e-03, 9.62265022e-03, 2.15263236e-02,
       3.36073805e-03, 3.75293265e-03, -9.29226074e-03, 1.99891813e-02,
       -2.15081181e-02, 1.87175944e-02, 9.80702229e-03, -4.03969362e-02,
       -2.21596081e-02, 6.07475499e-03, 1.02813244e-02, -3.71597037e-02,
       -1.88469060e-03, -1.75517402e-03, -2.24388321e-03,
       -2.30068322e-02, -1.71635635e-02, -8.88927095e-03,
       -1.96840037e-02, -1.16349291e-02, -3.77321765e-02,
       -1.29487785e-02, -1.56857520e-02, -4.28930810e-03, 5.64684207e-03,
       -8.84514581e-03, 2.94066295e-02, 2.37092376e-02, 2.29991153e-02,
       -3.07633895e-02, 2.07894295e-02, 5.79480268e-03, -1.74134988e-02,
       -1.46990390e-02, -4.56851767e-03, 2.93971468e-02, -1.72021482e-02,
       1.10428408e-02, -3.26805748e-02, -1.06377210e-02, -1.64409578e-02,
       -1.41122025e-02, -2.53374483e-02, -1.16149755e-03, 1.76946279e-02,
       -8.24088976e-03, 1.74694583e-02, -1.97292287e-02, -1.23950345e-02,
       -2.06997208e-02, 2.16317736e-03, -1.38621246e-02, -2.15233136e-02,
       9.92450863e-03, 1.79457502e-03, -6.64304197e-03, -4.33143415e-02,
       -2.04790123e-02, -9.96623188e-04, 1.44356322e-02, 2.52495031e-03,
       -5.61001059e-03, 1.90904196e-02, 3.45036350e-02, 3.75840887e-02,
       9.35462676e-03, -9.96183325e-03, -2.76573747e-02, -9.16816760e-03,
       -2.01162249e-02, -1.79311112e-02, 9.26314946e-03, 2.45588813e-02,
       1.46321058e-02, -1.46156754e-02, -3.84599641e-02, -3.13195512e-02,
       -1.05197739e-03, -1.03662396e-02, -2.24175770e-02, 1.89847965e-02,
       -1.11799156e-02, 1.40642270e-03, -2.86714453e-02, -1.60338469e-02,
       1.23773180e-02, -2.68415231e-02, -1.20952083e-02, -1.51261911e-02,
       -1.84660014e-02, -1.06788324e-02, -2.61584856e-02,
       -9.56693571e-03, 1.83263365e-02, 1.87587757e-02, -2.45323777e-03,
       1.00997435e-02, 6.88892091e-03, 4.89525795e-02, 2.57098842e-02,
       2.64784377e-02, -6.96247723e-03, 9.83112119e-03, -2.79770326e-02,
       5.90296462e-03, -1.04248486e-02, -1.40742846e-02, -7.32938107e-03,
       2.39696037e-02, 9.25089419e-03, 1.57087091e-02, -2.71909614e-03,
       -1.99606232e-02, -1.07355965e-02, 6.24227561e-02, 3.32147256e-02,
       1.22089591e-02, 5.48399705e-03, -2.16383021e-02, -6.91714790e-03,
       3.09451371e-02, 2.13121995e-02, -1.56660154e-02, 7.31266895e-03,
       8.57719127e-03, 2.77470611e-02, 8.97336844e-03, -7.63248978e-03,
       -1.28348572e-02, -4.34541628e-02, -1.81706436e-02,
       -1.80470140e-03, 3.93343195e-02, 1.98621582e-02, 4.69999248e-03,
       3.29763554e-02, 3.50177437e-02, 9.90803353e-03, 3.56652006e-03,
       1.19790593e-02, -2.02792995e-02, -1.53821940e-02, 2.20303796e-02,
       2.72729900e-02, 2.95510534e-02, 3.95845585e-02, -1.55107761e-02,
       -4.09596153e-02, -2.16299053e-02, 1.30700553e-02, -1.22766607e-02,
       -1.62396785e-02, 1.95992133e-03, -1.04338140e-03, 1.88559238e-02,
       1.41070336e-02, -1.12201115e-02, 1.07090259e-02, 1.18850647e-02,
       -4.62275557e-02, -2.93144472e-02, -2.33725389e-03,
       -2.05765069e-02, -3.87573801e-02, -6.45765336e-03,
       -7.83476140e-03, 4.44629090e-03, 3.01341549e-03, -2.64279805e-02,
       -1.25039509e-02, 1.66601483e-02, 1.59709807e-02, 3.73264998e-02,
       1.94944814e-02, -1.29509978e-02, 1.35843931e-02, -1.02143167e-02,
       -4.18795310e-02, -1.67788006e-02, -3.36352475e-02, 2.18368508e-03,
       -1.88518688e-02, 7.36041740e-03, -3.50146927e-02, 4.79945960e-03,
       5.05506694e-02, -1.06432987e-02, 6.72098482e-03, 4.47767787e-03,
       1.63310729e-02, -1.42671624e-02, -3.53405215e-02, -2.74936203e-02,
       2.57283896e-02, 4.82116304e-02, 2.02618875e-02, 1.95889175e-02,
       3.23303491e-02, -1.00296410e-02, 2.09250133e-02, 2.65122415e-03,
       1.64470244e-02, 2.72352062e-02, -2.60523316e-02, -3.93530279e-02,
       -5.99189254e-04, 1.18132951e-02, 1.30416937e-02, -1.98992509e-02,
       -5.99140534e-03, -2.46663280e-02, 3.87704262e-04, -1.04074636e-02,
       -1.71646159e-02, -2.96659488e-03, 3.48441117e-02, -3.53553779e-02,
       -8.86038318e-03, 1.70971937e-02, 1.20927636e-02, 6.46511186e-03,
       3.72230150e-02, 5.88637218e-03, -2.04056334e-02, -1.56693347e-02,
       2.77247820e-02, 2.91982703e-02, -1.68198510e-03, 1.58797558e-02,
       4.65778820e-02, 3.01322024e-02, 1.81727912e-02, -2.33064108e-02,
       -3.45081612e-02, -1.45429224e-02, -6.92295900e-04,
       -1.94838010e-02, 7.26311002e-03, 5.75821586e-02, -9.09978617e-03,
       4.62005707e-03, 3.19249579e-03, -2.26473007e-02, 4.62854095e-02,
       1.93550494e-02, 1.56169739e-02, -6.01984793e-03, 1.30845541e-02,
       1.67802088e-02, 1.74153317e-02, -7.27603538e-03, -7.86199886e-03,
       1.25738382e-02, 2.22043768e-02, -2.59289593e-02, 5.26663498e-04,
       3.72490585e-02, -6.50659390e-03, 2.09861994e-02, -1.25964843e-02,
       -2.10341960e-02, -3.77433747e-03, -7.14823091e-03,
       -2.48930864e-02, -1.37962243e-02, -7.62702804e-03, 2.55076010e-02,
       8.41633324e-03, -2.42434982e-02, -1.74370147e-02, 5.73717058e-03,
       5.12975827e-03, -8.72860942e-03, 7.03521585e-03, 1.92101207e-02,
       2.42548413e-03, 5.05880313e-03, -8.58956855e-03, 1.05663501e-02,
       4.21355627e-02, 1.38097322e-02, -3.12181953e-02, 3.67121794e-03,
       3.83737385e-02, -7.10175419e-03, -3.40362601e-02, -3.40544358e-02,
       1.82192214e-02, 1.58059523e-02, 3.28741297e-02, 1.49552396e-03,
       3.02615203e-02, 1.50861852e-02, 1.36736529e-02, -1.82368699e-02,
       -3.21660340e-02, -3.49860378e-02, -1.12335421e-02,
       -1.61259472e-02, 1.47721944e-02, 2.10911836e-02, 5.29715698e-03,
       5.78422751e-03, 2.94231903e-03, -2.22096853e-02, -2.33363267e-02,
       8.08131509e-03, 9.58230812e-03, -6.86792796e-03, -1.34967193e-02,
       7.48955552e-03, 1.28670747e-03, 1.42775076e-02, 2.37040035e-02,
       6.29369495e-03, -4.85903583e-03, 4.10720520e-03, 3.11011951e-02,
       3.32876854e-02, 1.83352886e-03, -3.27662714e-02, 3.40951723e-04,
       5.81605732e-03, -2.06437036e-02, -1.85471567e-04, 5.69949672e-03,
       2.23877728e-02, -9.37047694e-03, -2.45352220e-02, 3.92744802e-02,
       3.97380777e-02, -3.85793522e-02, -3.03420871e-02, 2.11898980e-04,
       -9.07313451e-03, -1.81960352e-02, -1.11895974e-03, 1.84213519e-02,
       3.37177664e-02, 2.29785573e-02, -5.10299802e-02, -3.72991636e-02,
       3.01475655e-02, -6.05441816e-03, -2.60100067e-02, -6.42966107e-03,
       -8.13608617e-03, 1.50806708e-02, 3.59438919e-02, -4.27882634e-02,
       -3.31242383e-02, -1.52318310e-02, -2.75372285e-02,
       -1.59802963e-03, 1.19899563e-03, -1.21025220e-02, -1.78844817e-02,
       -1.18894828e-03, -4.19014692e-02, -1.74519699e-02, 3.37368548e-02,
       -4.59602810e-02, -2.00314969e-02, -7.78866140e-03,
       -4.30314988e-02, 1.46917477e-02, 5.38674518e-02, -2.51147375e-02,
       -1.03517072e-02, 3.19914259e-02, 2.87486948e-02, 1.04017397e-02,
       2.81904116e-02, -6.68166904e-03, 7.64907012e-03, 5.99116646e-03,
       -6.66149566e-03, -1.22235911e-02, 3.06643508e-02, -9.02669877e-03,
       9.19344928e-03, 3.58782299e-02, 2.43920382e-04, -2.47579091e-03,
       1.85306687e-02, 1.95499714e-02, 6.16349420e-03, 2.99253520e-02,
       2.32233480e-02, 2.52585709e-02, 1.88504718e-02, -2.71519832e-02,
       -1.87953115e-02, 5.43583941e-04, 8.32502637e-03, -1.27642481e-02,
       2.57237237e-02, -7.25453673e-03, 1.46999378e-02, 4.96081170e-03,
       -2.94231940e-02, -3.08878999e-03, -1.10050933e-02,
       -2.88856099e-03, -2.29200907e-02, 2.43625306e-02, -6.65721018e-03,
       -1.01589523e-02, 3.48083563e-02, -5.91259822e-03, -1.21428743e-02,
       1.25649967e-03, 1.09262373e-02, -2.20098160e-02, -2.33173254e-03,
       -2.29017306e-02, -2.75294650e-02, 1.77566465e-02, 3.74652795e-03,
       2.76328996e-02, 2.13083755e-02, -7.05837330e-04, 6.81996532e-03,
       1.87613443e-02, -1.28394580e-02, 1.35835558e-02, 1.96693782e-02,
       -1.59157980e-02, 2.05041729e-02, 1.89578161e-02, -6.51490223e-03,
       -3.28713958e-03, 1.40261918e-03, -2.17733551e-02, 2.06283610e-02,
       6.27555139e-03, -2.06593815e-02, 2.22407356e-02, 1.68986060e-02,
       2.66003031e-02, 2.52255276e-02, 1.20098162e-02, -4.44737496e-03,
       -1.59083419e-02, 4.17414047e-02, 3.84404399e-02, 2.02980195e-03,
       -8.18696059e-03, -6.69986103e-03, -2.84995255e-03, 8.84608191e-04,
       -1.11296186e-02, -3.17823840e-03, 3.77973244e-02, -9.82491486e-03,
       3.76038440e-02, 4.87123355e-02, 3.41465734e-02, 4.52408232e-02,
       2.50171870e-02, 2.70323306e-02, 2.38507651e-02, 4.22718078e-02,
       -1.39376996e-02, -1.15246084e-02, 1.93947423e-02, -2.70750187e-03,
       1.67023316e-02, 3.79932038e-02, 1.62865911e-02, 2.07203012e-02,
       3.38608809e-02, 2.19981070e-03, -1.55227566e-02, 1.20219011e-02,
       -1.55066233e-02, -6.90864306e-03, 9.83043574e-03, 9.70777404e-03,
       -1.07527589e-02, 2.95087621e-02, -1.59832947e-02, -8.69913399e-03,
       1.64409671e-02, -4.14290139e-03, -2.01763902e-02, 4.16390924e-03,
       -5.99484285e-03, 2.44013662e-03, 1.25343017e-02, -2.79344041e-02,
       -1.58877596e-02, 1.65576264e-02, -1.05763441e-02, 2.93310732e-02,
       5.78914061e-02, 4.23639603e-02, 3.02646421e-02, 4.23020534e-02,
       1.24137234e-02, -1.00542521e-02, -6.78745052e-03, -3.74071230e-03,
       3.54053453e-02, 2.14803889e-02, 2.03406997e-02, -4.98829223e-03,
       -3.05425562e-03, -1.52410595e-02, 1.29337171e-02, 2.54297871e-02,
       -1.01930937e-02, -1.71452835e-02, -2.74484828e-02,
       -1.98043641e-02, -3.95511230e-03, 1.40113449e-02, -1.28274166e-03,
       -2.26395391e-03, 1.97393335e-02, -1.14215109e-02, -1.54357599e-02,
       -6.20688545e-04, -1.36258313e-02, -7.40276044e-03, 1.82823706e-02,
       -1.78039912e-02, 1.61330104e-02, 4.85458151e-02, -6.51293201e-03,
       1.72836632e-02, -5.42908069e-03, 1.88774373e-02, -1.52236000e-02,
       -1.32879717e-02, -2.05381811e-02, -1.13676107e-02, 3.72667313e-02,
       3.30894510e-03, -9.02096089e-03, -3.92068503e-03, 2.47382075e-02,
       -1.64020583e-02, -1.81390103e-02, -1.44606978e-02,
       -1.60792433e-02, 2.00603642e-02, -4.06839922e-02, -2.55302526e-02,
       -1.95216220e-02, 6.85719913e-03, -1.68429501e-02, 1.18795754e-02,
       -3.71867418e-02, -2.40606572e-02, -2.36256346e-02,
       -4.46169749e-02, -2.87618935e-02, -1.26880044e-02,
       -1.01263663e-02, -2.88849715e-02, -1.98754929e-02,
       -2.81716813e-03, 2.63581090e-02, 4.34399992e-02, 1.53067773e-02,
       5.94201917e-03, 5.99434832e-03, 4.39992137e-02, 6.73141098e-03,
       -7.91515410e-03, -1.39714014e-02, 1.58140231e-02, 5.01023419e-03,
       -1.59955323e-02, 1.89069065e-03, 3.85498768e-03, 1.51978591e-02,
       -7.46474462e-03, -3.87261808e-02, -1.09864986e-02,
       -1.15457142e-03, 1.98188727e-03, -2.33925655e-02, -4.85623581e-03,
       2.25178134e-02, 2.40859836e-02, -4.62951185e-03, -1.39365916e-03,
       -6.30571460e-03, -4.32230625e-03, 7.82710128e-03, -1.94168109e-02,
       -2.38305796e-02, -9.85992956e-04, -1.45146092e-02, 5.04963193e-03,
       1.24395499e-02, -2.68971734e-02, 3.70851494e-02, 1.70712043e-02,
       -1.07446294e-02, 2.82842927e-02, 2.63481699e-02, 5.02209216e-02,
       1.47136115e-03, -2.04582559e-03, -1.49836419e-02, 1.82014275e-02,
       3.00205015e-02, -7.19093950e-03, 4.65861335e-03, 1.21527920e-02,
       1.93238389e-02, 3.23651098e-02, 1.77864041e-02, -2.23164205e-02,
       -9.84871993e-04, 6.38024649e-03, 5.95984096e-03, 3.02342866e-02,
       -8.82315636e-03, -6.72565168e-03, -2.26732483e-03, 2.71033831e-02,
       3.18337290e-04, -5.45510324e-03, -3.24696302e-02, -8.74478742e-03,
       6.53079804e-03, 9.10107978e-03, -2.72715744e-02, -2.20116433e-02,
       -5.55377873e-03, -1.22552486e-02, 4.64119762e-03, 4.17250432e-02,
       4.43375064e-03, 3.47172394e-02, 3.27097028e-02, 6.11491911e-02,
       4.41629067e-02, 3.17191035e-02, -2.51474697e-02, 3.49190854e-03,
       7.32218707e-03, 8.99981614e-03, 1.39272586e-02, 1.37744835e-02,
       3.11096031e-02, 1.54362628e-02, 1.65892970e-02, -2.29475796e-02,
       1.44553306e-02, -5.94629440e-03, 7.28515489e-03, 7.60245277e-03,
       2.93105398e-03, 3.23249120e-03, -2.87041930e-03, 8.06031469e-03,
       3.35540436e-02, 2.75242217e-02, -1.29631823e-02, 1.42858019e-02,
       2.03754529e-02, -3.28255706e-02, -1.13856923e-02, -1.26953404e-02,
       9.72624682e-03, 2.44536847e-02, 3.98204215e-02, 1.91723611e-02,
       3.59084681e-02, 4.62088622e-02, 3.11622787e-02, 4.39146124e-02,
       2.98612900e-02, 2.76200641e-02, 2.66412646e-02, -6.86935149e-03,
       -5.02312481e-02, 7.82211660e-04, 1.44888060e-02, 6.79739169e-04,
       1.40197319e-03, 5.46807097e-03, 2.12673168e-03, -1.11893592e-02,
       3.34949568e-02, 8.94476939e-03, 2.13037357e-02, 9.42723919e-03,
       -3.18178609e-02, 6.92981854e-03, 1.81027893e-02, 2.52000839e-02,
       4.52900417e-02, 1.14282342e-02, -1.50282392e-02, 1.14140334e-02,
       -3.16085550e-03, -2.80703939e-02, -1.59798134e-02, 1.37105538e-02,
       -2.18003113e-02, 2.73616184e-02, 1.19340718e-02, 6.75711082e-03,
       3.61370817e-02, 1.76224448e-02, -2.93178484e-02, -2.80679180e-03,
       2.74946559e-02, 2.34100651e-02, 2.19446775e-02, 1.00907749e-02,
       -4.05758508e-02, 2.87807286e-02, 4.57838736e-02, -2.93308347e-02,
       1.62643641e-02, 1.07819075e-02, -3.22740860e-02, 3.36184935e-03,
       -5.11985086e-02, -3.47449034e-02, -3.36610875e-03, 3.00828461e-02,
       1.78345516e-02, -3.47822509e-03, 4.31924872e-03, -2.32622735e-02,
       -3.77780423e-02, -1.03005115e-02, -2.71871360e-03,
       -9.05545987e-03, 9.03402362e-03, 5.22310566e-03, 2.60792510e-03,
       -1.18960533e-02, -8.87133647e-03, 2.61079017e-02, -1.50571326e-02,
       -2.78333258e-02, 8.75213742e-03, 1.99914481e-02, -2.92713996e-02,
       4.54620598e-03, -2.99677216e-02, -2.00380161e-02, -2.22432856e-02,
       -4.68350388e-02, -2.78292522e-02, -3.50868590e-02,
       -1.14972908e-02, -7.56746456e-02, 2.39764601e-02, -4.58507016e-02,
       -3.32447886e-02, -6.30984316e-03, -1.78834163e-02,
       -4.90993960e-03, 2.35962728e-03, -3.43392976e-02, 6.90694759e-03,
       -2.77820658e-02, -8.44652299e-03, -2.66163498e-02,
       -1.58147402e-02, 1.42148780e-02, 4.37493548e-02, 3.34587097e-02,
       1.83519591e-02, 7.77642848e-03, 5.70375763e-04, -2.01411806e-02,
       -5.62543655e-03, 2.10188348e-02, -2.63167564e-02, 4.51448048e-03,
       9.47617441e-02, 6.49493411e-02, 2.17928626e-02, 2.47199379e-04,
       -1.63980499e-02, -4.72396389e-02, -3.72282080e-02, 3.84617448e-02,
       6.35251477e-02, 9.64892134e-02, 5.93617260e-02, 9.50729847e-03,
       8.83124303e-03, 5.48115280e-03, 1.28541281e-02, 2.03190949e-02,
       5.21297660e-03, -1.35140996e-02, -4.44795564e-02, -2.05895938e-02,
       1.32454904e-02, -1.29942186e-02, -1.81018598e-02, 1.51466029e-02,
       4.99661416e-02, -2.90998146e-02, -5.39209470e-02, -1.99393854e-02,
       2.14498360e-02, 1.11980932e-02, -7.80436909e-03, 4.39656992e-03,
       3.64376456e-02, 1.95603259e-02, 5.43688536e-02, 2.52773315e-02,
       -2.04025097e-02, -1.46266995e-02, -4.81239706e-03,
       -1.25776473e-02, 7.08541274e-03, 5.58724143e-02, 7.91119188e-02,
       2.27130186e-02, -1.17869433e-02, 1.60530675e-02, 1.82986986e-02,
       1.51270563e-02, -2.01908555e-02, 2.04953197e-02, 9.07627568e-02,
       7.32750297e-02, -7.89079536e-03, 7.42171034e-02, 1.09448478e-01,
       1.06114544e-01, 1.21551109e-02, -9.43972357e-03, -4.65096877e-04,
       1.45715503e-02, -2.54959706e-02, -1.98450824e-03, 2.59247888e-02,
       1.96674168e-02, 1.06730883e-03, -2.23905686e-02, -4.02680077e-02,
       -5.07891849e-02, -3.98645923e-02, -7.61136860e-02,
       -3.98605131e-03, 4.02668789e-02, 1.08905450e-01, 7.67421871e-02,
       1.41220232e-02, 4.37158439e-03, 2.18224097e-02, 5.71074300e-02,
       7.84914847e-03, -3.35298218e-02, -3.92544381e-02, 5.87386452e-03,
       -8.46711174e-03, 1.22139873e-02, -2.70901285e-02, -2.94501353e-02,
       -3.51647325e-02, -4.51770946e-02, 2.60248892e-02, 5.32118939e-02,
       -1.86716914e-02, -5.64107578e-03, -2.65858714e-02,
       -1.68136638e-02, 2.06540735e-03, 7.73380091e-03, -3.64117697e-02,
       -2.04990003e-02, 1.49588697e-02, -7.84857292e-03, -3.12216626e-03,
       1.51760150e-02, -1.70473307e-02, 1.23069668e-03, -7.99073969e-05,
       -3.47906277e-02, 6.36463705e-03, -1.44937178e-02, -4.39568609e-02,
       -2.19842009e-02, -2.25179791e-02, 5.78693929e-04, -2.36576796e-02,
       1.89318117e-02, -7.23710656e-03, -1.41320843e-03, -2.91162655e-02,
       -1.46937240e-02, -3.46708857e-02, -1.56433433e-02,
       -3.69792990e-02, -3.71369421e-02, 1.32806599e-03, 3.14364536e-03,
       -1.53814647e-02, 1.93942599e-02, 2.90064886e-02, -1.65350444e-03,
       3.10335285e-03, 3.68924416e-03, 1.19299404e-02, 1.28530040e-02,
       -3.90699459e-03, 1.66260805e-02, 6.29405379e-02, 3.42557020e-02,
       -1.24925410e-03, 1.15971053e-02, 3.78830102e-03, 2.83480680e-04,
       4.37913425e-02, -1.33565012e-02, 3.23881768e-03, 1.04687195e-02,
       1.07825443e-03, -1.52416686e-02, 1.23491045e-02, -2.85853334e-02,
       -8.92357249e-03, 1.10626575e-02, 6.08645054e-03, -1.63543783e-02,
       1.81978568e-02, 4.46622027e-03, -2.82205939e-02, 7.30304653e-03,
       -3.69127132e-02, -3.06946244e-02, -2.45200633e-03,
       -6.97506266e-03, 3.41180936e-02, 6.50926605e-02, -8.15192889e-03,
       -1.30148558e-02, -2.76534259e-02, -7.79724214e-03,
       -9.42680612e-03, 4.17948999e-02, 7.69567955e-03, 3.37585360e-02,
       3.85400727e-02, -2.61705760e-02, -3.92791964e-02, -5.00057936e-02,
       -2.22966857e-02, 1.73198953e-02, 1.99245922e-02, -1.15551520e-02,
       -2.18765233e-02, 2.42305342e-02, -8.09558108e-03, -2.80179381e-02,
       -1.59966145e-02, 4.60305950e-03, -1.72319077e-02, -9.55570769e-03,
       -1.59722548e-02, 4.91865538e-03, 1.09764584e-03, -2.66268775e-02,
       -4.02393490e-02, -2.88477205e-02, -3.18807513e-02,
       -1.49109988e-02, 8.61749426e-03, -2.86082290e-02, 4.61186320e-02,
       5.36091141e-02, 1.05126901e-02, 7.41972681e-03, 9.37228929e-03,
       1.30958529e-02, 2.21843622e-03, 2.36946661e-02, 1.57932267e-02,
       1.06627960e-02, 2.17422806e-02, -1.76553614e-02, -9.27381404e-03,
       3.13988402e-02, 1.72532927e-02, 1.03207612e-02, 3.90594974e-02,
       4.03373204e-02, 3.97950737e-03, 2.09241416e-02, -1.84013210e-02,
       4.29430883e-03, -8.82957224e-03, 9.97182075e-03, -2.06147972e-02,
       -2.27695424e-03, -4.64495718e-02, -2.15459540e-02, 5.36060240e-03,
       -1.59848165e-02, -3.61498557e-02, 2.00207233e-02, 1.61240622e-02,
       -3.04419547e-02, -9.77277011e-03, -2.68454291e-02, 1.39314895e-02,
       -6.96015637e-03, -2.68204808e-02, -3.64420414e-02, 7.72786560e-03,
       1.27197625e-02, 1.12674162e-02, 7.92235583e-02, 6.08324595e-02,
       1.85733065e-02, -1.06709206e-03, -4.43508364e-02, -2.06135139e-02,
       1.33861266e-02, 5.12607279e-04, -1.62946656e-02, 2.77744588e-02,
       2.41509546e-02, -3.76009680e-02, 8.09053890e-03, -2.01243963e-02,
       -5.51933013e-02, -1.44267194e-02, -1.05574997e-02,
       -8.62384681e-03, 7.85768777e-03, 9.50432289e-03, -6.01295289e-03,
       1.61161274e-02, -3.91426124e-02, -4.25562374e-02, -2.28636619e-02,
       -2.21192185e-02, -5.04033491e-02, 1.91073678e-02, -1.37789901e-02,
       -1.47340121e-02, 1.68034881e-02, -2.33435724e-02, -2.56989338e-02,
       -1.13182543e-02, -3.07837757e-03, -4.47300822e-02,
       -2.73136632e-03, 1.66175757e-02, 2.20720796e-03, 1.01506691e-02,
       -7.22460169e-03, -3.94110568e-02, -8.64153961e-04,
       -8.02279741e-04, -4.73426059e-02, 2.56632082e-03, 1.75816957e-02,
       3.92473041e-04, 5.17136510e-03, -5.70954615e-03, -1.61714219e-02,
       -2.62762443e-03, -1.22988699e-02, -5.05029447e-02, 3.04395277e-02,
       -2.88232905e-03, 7.85716064e-03, 2.67870184e-02, -1.20424228e-02,
       -4.61755767e-02, -1.88596081e-03, 9.71657573e-04, -2.20752489e-02,
       4.65345979e-02, 6.01741765e-03, -2.22734045e-02, 6.52998919e-03,
       -2.05893461e-02, -2.27864813e-02, -1.38381112e-03, 4.53332090e-04,
       -4.07491624e-02, -9.27699078e-03, -2.10451819e-02,
       -1.23811150e-02, -6.90520834e-03, -1.67742260e-02, 9.59580578e-03,
       1.09679820e-02, 5.06944163e-03, -1.78510584e-02, -2.67090090e-02,
       -1.43047282e-02, -1.93446185e-02, 7.73250461e-02, -1.65986996e-02,
       -4.05854248e-02, -2.12694183e-02, -1.60870496e-02,
       -3.40482816e-02, 6.77591097e-03, -3.08325738e-02, -3.72235440e-02,
       1.87421776e-02, -9.60610574e-04, -6.89242501e-03, 1.40318768e-02,
       -1.13428226e-02, -1.28024546e-02, -2.72668456e-03, 1.05790393e-02,
       -1.63953342e-02, -4.94614756e-03, -3.26408334e-02,
       -6.47998461e-03, -1.86210964e-02, -1.35991573e-02,
       -3.52094099e-02, -2.00271178e-02, -1.27800275e-02,
       -5.06766140e-03, -7.15304539e-03, -4.38283905e-02,
       -2.76854727e-02, -4.13355455e-02, -2.98472848e-02,
       -5.60244918e-03, -3.25648114e-03, -2.97555351e-04,
       -2.37245549e-05, 2.85039493e-03, -1.30652795e-02, -3.43952584e-03,
       7.48235593e-03, -1.48869576e-02, -2.67879572e-02, 2.48784274e-02,
       4.33870181e-02, 2.46857032e-02, 1.43160038e-02, -1.24426801e-02,
       1.06551172e-02, 1.61312353e-02, -3.03160008e-02, -5.55896806e-03,
       2.77503580e-02, 4.42723893e-02, -1.85801256e-02, 3.05646844e-02,
       -2.46919058e-02, -1.35528455e-02, -2.66526248e-02,
       -2.07355549e-03, 9.13040596e-04, -2.88028712e-03, -2.13698465e-02,
       -2.25008186e-02, -1.01199932e-02, -3.80899273e-02,
       -2.76238434e-02, -4.46239784e-02, -4.81891297e-02,
       -3.34579758e-02, -1.51251657e-02, -3.74433659e-02, 2.16802824e-02,
       5.49178906e-02, 5.43510262e-03, 5.77177405e-02, 1.33078976e-03,
       -1.58468971e-03, -2.26233690e-03, 2.10368466e-02, 1.62439328e-02,
       3.85671481e-02, 5.20861782e-02, 9.33803804e-03, 1.76219903e-02,
       2.06126682e-02, 1.17099201e-02, -8.72526132e-03, 2.44525615e-02,
       1.62836295e-02, 1.55813731e-02, 4.72548651e-03, 4.74609667e-03,
       4.12155613e-02, 4.03994583e-02, 2.35181116e-02, 7.17366906e-03,
       1.91492029e-02, 1.53197898e-02, -8.51513632e-03, -5.70870824e-02,
       -4.54252698e-02, -4.69007008e-02, 4.64544026e-03, -1.21708671e-02,
       -3.03623285e-02, -3.74672897e-02, -2.57966258e-02, 5.00418656e-02,
       6.14541322e-02, 3.15653309e-02, 6.19129874e-02, 9.22629833e-02,
       8.16603824e-02, 4.22690511e-02, 6.98963851e-02, 5.35309911e-02,
       -4.58468357e-03, -4.70964909e-02, -3.90054360e-02,
       -3.62727866e-02, 3.49242762e-02, 1.31230969e-02, -5.36155701e-02,
       -4.10235114e-02, 1.53427226e-02, 2.61983443e-02, -2.89746304e-03,
       9.51556023e-03, -1.46019226e-02, -1.06989983e-02, -7.13250949e-04,
       -6.81621628e-03, -8.70968867e-03, 1.43427253e-02, -1.69289224e-02,
       -6.08513057e-02, 6.05347566e-03, 2.95026954e-02, -1.25857955e-02,
       1.65895082e-03, -8.08937289e-03, -3.22298482e-02, 2.60446640e-03,
       5.97036630e-03, -3.44095007e-02, -1.03053786e-02, 1.21433036e-02,
       -2.29257010e-02, 3.44573222e-02, 1.15147363e-04, -9.99058038e-03,
       2.68612336e-02, -1.82850212e-02, -6.18279688e-02, -7.57880218e-04,
       8.50174483e-03, -1.20561719e-02, 1.91991217e-02, -2.87155109e-03,
       -6.30552173e-02, -2.31784023e-02, 4.80301157e-02, -1.35031249e-02,
       -1.41917206e-02, -3.10491640e-02, -2.07723305e-03, 7.48507073e-03,
       -3.83094773e-02, -1.95376738e-03, 4.16328758e-02, 2.12306529e-02,
       -3.65095399e-02, -3.10064703e-02, -1.87527817e-02,
       -1.56090604e-02, -3.67165799e-03, -4.02452610e-02,
       -3.38222156e-03, 3.95138487e-02, 4.84561361e-02, 7.81284645e-03,
       -3.36234458e-02, -4.15600315e-02, 1.30244913e-02, -2.18979791e-02,
       -4.80848402e-02, -1.31446337e-02, 6.38479590e-02, 4.06022407e-02,
       1.18934354e-02, -6.16619596e-03, -9.55563970e-03, 1.23058353e-03,
       2.56740674e-02, -2.32634507e-02, -1.71621591e-02, 3.57422270e-02,
       -4.29411754e-02, -3.74015272e-02, 5.33567816e-02, 4.47258390e-02,
       3.55583280e-02, 1.08722942e-02, 6.26881840e-03, -2.65409835e-02,
       -4.86613065e-02, 1.91297308e-02, 4.99968901e-02, 7.09301606e-02,
       5.02737723e-02, 2.33340655e-02, 2.62836069e-02, 1.55347297e-02,
       -6.02897583e-03, -2.28560548e-02, -6.11598529e-02,
       -3.16269211e-02, 1.85387023e-02, 2.42493898e-02, 6.50279298e-02,
       7.16878027e-02, 7.72971958e-02, -1.58194713e-02, -3.61469276e-02,
       -4.06097472e-02, -4.25607478e-03, 3.02518047e-02, 1.03077451e-02,
       -1.43279065e-03, 5.44664599e-02, 9.58810374e-02, 4.72445004e-02,
       -5.40528679e-04, 5.51476292e-02, 4.84064147e-02, 8.81960266e-04,
       -8.06014519e-03, -8.06606933e-03, -1.19259041e-02,
       -3.64081329e-03, 2.67817918e-02, 5.27787730e-02, 1.14243859e-02,
       -1.01383394e-02, 2.46035159e-02, -8.88989214e-03, 2.02225596e-02,
       -1.65683143e-02, 1.92265715e-02, 4.98086177e-02, 2.66090017e-02,
       5.24105094e-02, 4.77728546e-02, 5.77403791e-03, -1.47551242e-02,
       -2.92862318e-02, -9.34380572e-03, 1.51192285e-02, 3.02623268e-02,
       4.01751027e-02, 4.63405997e-02, 5.34812994e-02, 4.18608710e-02,
       -2.48367805e-02, 1.44477151e-02, -1.12010576e-02, 2.74140183e-02,
       -1.03088375e-03, -1.39104873e-02, -2.20844373e-02, 1.64181367e-02,
       7.98665062e-02, 5.42351827e-02, 2.72998959e-02, 6.25479594e-02,
       6.52180761e-02, 5.83873726e-02, -2.55367858e-03, -5.12291603e-02,
       -5.14848456e-02, -1.32686878e-02, 4.48203925e-03, 2.11566649e-02,
       3.23631912e-02, 2.70342287e-02, -1.23782149e-02, -2.66396310e-02,
       4.53274092e-03, 5.70898205e-02, 8.34781155e-02, 5.00425883e-02,
       3.41672562e-02, 7.18402416e-02, 6.80519044e-02, 3.07733119e-02,
       -1.97818503e-02, -3.22126932e-02, -1.24600045e-02, 2.46620588e-02,
       7.84728676e-03, 1.38213793e-02, 4.95617883e-03, -1.12972446e-02,
       -3.88041697e-02, -4.52100821e-02, -1.99565981e-02,
       -1.23320371e-02, -2.55543068e-02, -9.64235514e-03,
       -2.04906818e-02, 3.23803574e-02, 6.29247865e-03, 3.23570482e-02,
       -1.29560186e-02, -1.22778339e-03, -3.03363372e-02,
       -3.44796963e-02, -2.74520218e-02, -4.50091064e-02,
       -3.07090953e-02, -2.94565428e-02, -3.86757869e-03, 9.41402186e-03,
       -3.64061818e-03, 3.05405930e-02, 1.91104896e-02, -1.62279848e-02,
       -5.03190234e-02, -1.31966686e-02, -9.18753538e-03, 1.01043354e-03,
       -2.98339482e-02, 1.35983117e-02, 6.00177981e-03, -4.38671522e-02,
       -4.41754311e-02, -6.04053587e-02, -5.07356003e-02,
       -3.79511863e-02, -2.09919382e-02, -8.35977308e-03,
       -6.18010852e-03, -1.48229776e-02, -8.15513823e-03, 2.87395134e-03,
       -2.02271547e-02, 1.12003470e-02, -4.86611063e-03, 2.99364403e-02,
       3.78189720e-02, -5.30955233e-02, 1.41160842e-02, 1.16825113e-02,
       -2.97488528e-03, -2.51091868e-02, -7.38514820e-03,
       -1.21733053e-02, 3.45252790e-02, -1.24218557e-02, 2.53270362e-02,
       7.21850106e-03, -2.94546764e-02, -5.34001179e-03, -3.63447107e-02,
       1.42753050e-02, -1.25164706e-02, 2.24416703e-02, 1.70635507e-02,
       -3.19680795e-02, -1.70156825e-02, 1.40014887e-02, -2.77602822e-02,
       -1.04178963e-02, 1.44287879e-02, -3.16337310e-03, 1.21527007e-02,
       -7.67837837e-03, -5.61169162e-02, 9.57417022e-03, 4.78721224e-03,
       1.11155631e-02, 2.13579100e-04, 3.76588628e-02, 4.04387852e-03,
       1.18831443e-02, -3.61721255e-02, -3.48208584e-02, -3.55330901e-03,
       1.02700433e-02, -4.95081814e-03, 2.70363060e-03, 1.99452899e-02,
       5.79006039e-03, -4.75084642e-03, -5.94134815e-02, -3.85105386e-02,
       -6.66976534e-03, 9.33813956e-03, -5.40390005e-03, 7.53364014e-03,
       2.17321310e-02, -7.23929331e-03, 1.85913332e-02, -3.41609307e-02,
       -1.91448499e-02, -3.29213329e-02, -3.09604127e-03,
       -1.38971070e-02, -1.35640977e-02, -2.46233158e-02,
       -2.38967072e-02, -2.13008262e-02, -3.61360349e-02,
       -3.49794924e-02, 2.37515327e-02, 3.44441533e-02, 5.27753197e-02,
       2.05838308e-02, 4.11440246e-02, -2.94824131e-03, 5.58428606e-03,
       -3.51979695e-02, -8.89322534e-03, 2.26537734e-02, 3.17888185e-02,
       2.66664084e-02, 3.48456353e-02, -2.23675231e-03, -2.88861599e-02,
       6.71707373e-03, -1.78039521e-02, -3.15212645e-02, 1.88098270e-02,
       3.92466486e-02, 6.21389933e-02, 4.76509221e-02, 1.45225192e-03,
       -2.72653028e-02, 1.18687199e-02, -2.38119140e-02, -1.59525033e-02,
       4.91804862e-03, 1.95438787e-03, 8.75588693e-03, 2.25106776e-02,
       -3.57258320e-03, -3.74072837e-03, 1.51235946e-02, -2.90850177e-02,
       -2.74812523e-02, 3.92694399e-02, 1.09395001e-03, -5.68695553e-03,
       -2.90930383e-02, -4.70073381e-03, -3.38742845e-02, 7.01217307e-03,
       4.63577406e-03, -7.47546926e-03, 7.73431510e-02, 1.25672680e-03,
       5.78809902e-03, -6.62005600e-03, 1.36115476e-02, -5.38544022e-02,
       2.61878222e-02, -8.60721245e-03, -2.06296667e-02, 1.27112223e-02,
       -2.99730413e-02, -1.58736587e-03, -1.77405309e-02,
       -5.34133986e-03, -1.84205372e-03, 3.39646265e-02, -5.15094735e-02,
       -3.27572867e-04, 3.39517482e-02, -2.32088827e-02, 8.85261502e-03,
       -3.44840884e-02, -3.78421065e-03, -8.00538994e-03, 6.05233945e-02,
       9.79874283e-03, -6.63562119e-03, 5.75563461e-02, 1.79074891e-02,
       1.36368489e-02, 4.76923352e-03, 5.45526447e-04, -4.66975272e-02,
       2.40710936e-02, -1.32210739e-02, 1.38125895e-02, 9.63726118e-02,
       5.27214725e-03, -2.73280814e-02, 7.17526721e-03, -1.46429818e-02,
       9.10368841e-03, 4.95708920e-02, 9.48934164e-03, -2.01409459e-02,
       2.48960145e-02, -1.33240847e-02, 4.42068931e-03, 3.87212285e-03,
       -7.48482579e-03, -1.51175326e-02, 5.36258817e-02, -1.86309218e-02,
       -1.74363181e-02, 3.21148075e-02, -5.92896948e-03, -3.48353311e-02,
       -3.48177291e-02, -5.59023283e-02, 2.97623090e-02, 6.34800717e-02,
       -1.72405485e-02, 2.37883180e-02, 8.68291184e-02, -2.12529469e-02,
       -3.00219413e-02, -2.11994667e-02, -2.81473715e-02,
       -1.01525858e-02, 2.36686505e-02, -8.47806409e-03, -1.13418617e-03,
       4.81131449e-02, -2.74168141e-02, -3.73144224e-02, -1.21740466e-02,
       -3.46521884e-02, -1.23301484e-02, 5.25706215e-03, -1.00555606e-02,
       -2.67054345e-02, 2.79074982e-02, -4.41354699e-02, -3.76468599e-02,
       -3.08347326e-02, -5.37764430e-02, 3.30979866e-03, 5.16214967e-02,
       -9.54095647e-03, -1.16220759e-02, 2.97523346e-02, -2.69573573e-02,
       -3.27046774e-02, 8.56588129e-03, -4.93504629e-02, -1.92242544e-02,
       1.47857517e-02, 1.29312015e-04, -5.59306657e-03, 1.69511903e-02,
       3.94230103e-03, -2.36290898e-02, -1.26914776e-04, -8.43619835e-03,
       -2.26960815e-02, -1.79939973e-03, 6.41438598e-03, 2.92995479e-02,
       2.63484567e-02, -1.66607858e-03, -1.54239861e-02, -6.14536367e-03,
       -1.71333291e-02, -6.30256906e-03, 1.96636003e-02, 2.19470393e-02,
       1.98653080e-02, 1.43402340e-02, -2.47595366e-03, -1.45593230e-02,
       -1.31037645e-03, -2.45047491e-02, -9.16558597e-03, 1.05382167e-02,
       -1.92195941e-02, 9.86723695e-03, 2.73589473e-02, 1.28401062e-02,
       -1.09687606e-02, 4.91472287e-03, 1.89389742e-03, 1.75143313e-02,
       1.88451782e-02, -3.60309333e-03, 2.08985955e-02, 3.01028881e-02,
       2.32900959e-03, 1.19160283e-02, -2.92696021e-02, 2.28625853e-02,
       -1.91190746e-02, 6.92816731e-03, 1.54915946e-02, 1.08968513e-02,
       7.62425829e-03, -8.14518519e-03, -1.49664804e-02, 9.40118544e-03,
       2.01371219e-02, 5.24701551e-03, 1.82772633e-02, -1.50113564e-03,
       1.69567745e-02, 1.46044539e-02, 1.97085110e-03, 2.25118920e-03,
       1.88951415e-03, 3.47445905e-02, 1.18970145e-02, 2.40671244e-02,
       1.09877251e-03, 2.22698394e-02, 4.72281408e-03, -1.52332010e-02,
       -1.98504291e-02, 9.86450538e-03, -7.53340079e-04, -1.38750561e-02,
       1.76443234e-02, 1.51374089e-02, 1.30621782e-02, 1.94849614e-02,
       2.55918466e-02, 7.04444647e-02, 9.44333598e-02, 1.15718827e-01,
       4.10422646e-02, 4.35912423e-02, 4.85084280e-02, -3.86620089e-02,
       -4.63715456e-02, -2.34809667e-02, -3.72401029e-02, 2.64915787e-02,
       -1.56254545e-02, -3.36182863e-02, -3.38822007e-02, 5.35803754e-03,
       5.95872551e-02, 3.67537066e-02, 3.11738458e-02, 9.16839093e-02,
       6.70340657e-02, 4.37664501e-02, 1.98763683e-02, 2.79988721e-02,
       4.50227782e-02, -3.25770024e-03, -3.98111008e-02, -1.83952823e-02,
       -3.86004671e-02, -1.02220168e-02, -6.50663748e-02,
       -4.82177399e-02, -6.98756352e-02, -3.92124467e-02, 2.09394079e-02,
       -1.34893563e-02, 6.52332790e-03, 1.39767677e-02, -2.62230020e-02,
       2.14329585e-02, 1.82803813e-02, 6.21464942e-03, 3.92015241e-02,
       1.40900444e-02, -2.03891471e-02, 6.08334271e-03, -3.80918593e-03,
       -4.72034328e-02, 1.46407327e-02, 1.70452092e-02, 4.91246954e-03,
       -2.35640560e-03, 2.67242640e-02, 5.00679808e-03, 2.47558001e-02,
       9.77738574e-03, -2.45165713e-02, 2.44161319e-02, 1.16320839e-02,
       -2.29920149e-02, 3.90335964e-03, 7.17983115e-04, -2.80706817e-03,
       1.07449833e-02, 3.30651253e-02, -2.97648348e-02, 6.04447257e-03,
       3.95095907e-02, 9.98176984e-04, -6.42277161e-03, -1.55990783e-04,
       -6.30195579e-03, -1.85303967e-02, 2.65208050e-03, -1.77072287e-02,
       -4.10829671e-02, -1.75576266e-02, -2.81779421e-03, 1.07694073e-02,
       1.90597668e-03, 2.38358956e-02, 2.39423593e-03, 2.04492640e-02,
       -4.61932831e-02, -8.83830769e-04, -2.77712438e-02,
       -3.15566882e-02, -8.30598641e-03, -1.59850810e-02,
       -3.45097668e-02, 1.18647702e-03, 3.97069417e-02, 1.47991674e-03,
       2.48916391e-02, 1.49379736e-02, 1.84341092e-02, 1.37226619e-02,
       2.48533897e-02, 2.78676115e-02, -8.60706531e-03, 1.19957123e-02,
       -3.65497470e-02, 2.01328751e-02, 5.90107823e-03, 8.52190610e-03,
       3.58467293e-03, -4.28570881e-02, -3.20297927e-02, -1.61138438e-02,
       -6.02020184e-03, 3.47292088e-02, 5.77087253e-02, 8.04423764e-02,
       -3.13292956e-03, -2.42971964e-02, -1.73944514e-02,
       -3.19568366e-02, -1.17842537e-05, 1.31038222e-02, 1.71625055e-02,
       4.77542542e-02, 9.81060266e-02, 7.02914074e-02, 4.06240672e-02,
       -2.70790737e-02, -2.17214972e-02, -2.53461190e-02,
       -2.08378118e-02, 2.14679427e-02, -2.38540093e-03, -7.79809384e-03,
       -2.80571412e-02, -3.27484831e-02, 9.35993902e-03, -1.07203601e-02,
       -2.13041604e-02, 2.49384586e-02, 2.73281541e-02, 1.90390479e-02,
       2.43017301e-02, 3.80546674e-02, 2.51344554e-02, 7.87096247e-02,
       4.46442030e-02, -9.30505848e-05, -5.07862773e-03, -7.76282093e-03,
       -1.92809030e-02, -1.32159786e-02, 3.52386571e-02, 5.78049496e-02,
       7.73203373e-02, 7.83335343e-02, 1.69610977e-02, -2.65447423e-02,
       2.28833826e-03, 2.14686133e-02, 1.02787260e-02, -1.34139247e-02,
       -8.88388604e-03, 5.97962998e-02, 1.58741269e-02, -1.80266015e-02,
       3.55052087e-03, 2.19684169e-02, -2.82103121e-02, -4.29509990e-02,
       -2.05888916e-02, 3.50235775e-02, 2.68320460e-02, 4.24884446e-02,
       -6.32206851e-04, 4.60473262e-03, 8.32592696e-03, -1.07728189e-03,
       -3.69520709e-02, -6.11450486e-02, -3.90216522e-02, 1.06011461e-02,
       3.86867411e-02, 2.36389004e-02, 2.27293409e-02, -1.32646260e-03,
       1.22838065e-01, 1.23557411e-01, 6.13773838e-02, -3.64881121e-02,
       -3.85958888e-02, -2.39414908e-02, -8.36211164e-03,
       -1.91911012e-02, -8.46082438e-03, -4.28162422e-03, 1.21492213e-02,
       -2.18948256e-02, -4.12108265e-02, -2.40202360e-02, 2.54908688e-02,
       -1.39249358e-02, 8.92715622e-03, 2.43565906e-02, 1.02161631e-01,
       9.92703885e-02, 5.60376346e-02, -1.42559027e-02, -4.70979474e-02,
       -1.48932310e-02, -4.10982408e-02, -4.98597845e-02, 7.75390398e-03,
       -4.05897852e-03, 2.23143529e-02, 4.61375639e-02, 2.71746470e-03,
       3.26911896e-03, 1.53751140e-02, 2.66517289e-02, -8.10957793e-03,
       -3.07725351e-02, -3.70971411e-02, -3.58670838e-02,
       -9.37808026e-03, 1.73630274e-03, 1.76889845e-03, 1.97299607e-02,
       -1.99638698e-02, -2.21405849e-02, -2.49305908e-02,
       -5.50377555e-02, -6.11629374e-02, -2.31300481e-02,
       -1.56531949e-02, -1.81760304e-02, 2.86397375e-02, 9.68737621e-03,
       -3.13172750e-02, 5.61791938e-03, -1.10545410e-02, -1.53853893e-02,
       7.49152154e-02, 3.85737866e-02, -5.78792393e-03, 3.27158347e-03,
       1.45728281e-02, -2.11839955e-02, 1.11682015e-02, -2.83581540e-02,
       -3.38341221e-02, 9.72313900e-03, -1.94519258e-03, 5.64289745e-03,
       1.18738487e-02, -3.13735753e-02, -9.86065716e-03, -1.49090998e-02,
       -1.42635060e-02, -2.70542335e-02, 5.81998797e-03, 9.78137273e-03,
       -3.69343837e-03, 4.19127522e-03, -3.12384195e-03, -9.25398897e-03,
       1.35593396e-02, -2.31256355e-02, -2.06667073e-02, 1.46035999e-02,
       -1.06785093e-02, 1.57700814e-02, 2.00444218e-02, 3.33983661e-03,
       4.43170080e-03, -2.60835025e-03, 2.30495632e-03, 1.86535511e-02,
       5.38442880e-02, 1.56560296e-03, 4.82306117e-03, 2.34639049e-02,
       8.43225885e-03, 4.93557239e-03, 2.10929066e-02, -9.80942696e-03,
       1.83772091e-02, 7.51800090e-02, 4.67943624e-02, -3.14660519e-02,
       -8.77260137e-03, 4.07529250e-03, 2.42456049e-02, -7.82442652e-03,
       -2.02006605e-02, -2.52681896e-02, 1.23001467e-02, -1.62297394e-02,
       -3.21163163e-02, -2.82045230e-02, -6.99745445e-03, 6.32385630e-03,
       -2.71948315e-02, -4.96779829e-02, -1.77020244e-02, 3.84943164e-03,
       -1.32389355e-03, 5.55817038e-03, 2.90081017e-02, 3.20498720e-02,
       1.17811952e-02, -1.25817377e-02, -7.70445867e-03, -6.33643428e-03,
       8.43723789e-02, 1.15668587e-02, 3.66831198e-03, 2.36346899e-03,
       2.72763278e-02, 2.67808558e-03, 1.44099388e-02, -1.71582028e-02,
       -1.29309688e-02, 3.45695205e-02, 2.75930366e-03, -5.55664748e-02,
       -1.50970193e-02, -8.88630748e-03, 3.05547174e-02, 5.86350122e-03,
       -2.16208957e-03, -3.57102044e-02, 1.30189806e-02, 5.05330507e-04,
       -8.07611458e-03, -7.34653231e-03, -4.80653457e-02, 6.35955203e-03,
       2.03980692e-02, -3.30112432e-03, -2.75904331e-02, 8.11508484e-03,
       -4.07438837e-02, 1.26288198e-02, 2.58628819e-02, -8.19664914e-03,
       1.17158787e-02, 1.68568026e-02, -1.26944529e-02, -1.03248218e-02,
       4.20821533e-02, 3.54790054e-02, 4.82067838e-02, 3.65241915e-02,
       -2.21830141e-02, -3.54316412e-03, 1.01705501e-02, -2.34782081e-02,
       -2.95972079e-02, 2.72772089e-02, 5.16963787e-02, 1.67426262e-02,
       4.48809080e-02, -3.38108838e-02, -1.48454253e-02, -1.98179241e-02,
       -3.31583247e-02, -3.67458314e-02, 8.68074223e-03, -6.30019382e-02,
       3.76053737e-03, 2.97117177e-02, -3.34106572e-02, 4.84248251e-03,
       -3.13900672e-02, -5.82205877e-02, -5.43876439e-02, 3.20642162e-03,
       -1.24503775e-02, 5.71639389e-02, 7.29698762e-02, -6.45408686e-03,
       2.56052725e-02, 5.76889655e-03, -3.58942598e-02, -3.33050527e-02,
       1.10831019e-02, 4.04560082e-02, 1.63418371e-02, 3.04347854e-02,
       -1.28160627e-03, 9.00608674e-03, -5.43061062e-04, -5.91370761e-02,
       -2.62370519e-02, 6.00713026e-03, 1.70602109e-02, 1.60786696e-02,
       3.02597079e-02, -2.64472049e-02, 4.88555897e-03, -7.35908980e-03,
       -1.63861122e-02, -2.68907454e-02, 2.34764945e-02, 2.28790026e-02,
       1.59639027e-02, 2.44859923e-02, -4.52488698e-02, -3.65924723e-02,
       -4.23888080e-02, -5.31879067e-02, -5.57222078e-03, 4.38492596e-02,
       -6.56522904e-03, 1.86159592e-02, -5.89785690e-04, -3.11094895e-02,
       4.41932352e-03, 1.04216440e-02, -2.99526677e-02, -3.00058853e-02,
       2.46559475e-02, -6.14861259e-03, 1.93471313e-02, 1.47889238e-02,
       -5.40943630e-02, -3.16794664e-02, 8.50705709e-03, -6.06400818e-02,
       -3.05710416e-02, 2.72715427e-02, -1.02668547e-03, -8.72515421e-03,
       1.59826651e-02, -4.21604365e-02, -1.31287007e-02, -2.05066875e-02,
       -3.66674103e-02, 2.87555769e-04, 5.87168448e-02, -1.06747262e-03,
       1.99095309e-02, 4.21539210e-02, -1.09454300e-02, 6.92613609e-03,
       -1.79664150e-03, -1.05379277e-03, -1.23867877e-02, 1.16443196e-02,
       2.06056070e-02, -8.74536671e-03, -1.87377678e-03, -4.98004109e-02,
       -8.71427264e-03, -2.23261700e-03, -4.16145325e-02,
       -2.66779605e-02, 5.24679758e-03, -1.39229419e-02, -1.80681404e-02,
       -2.44909711e-02, -4.39667143e-02, -2.17314740e-03, 8.96982383e-03,
       1.51091702e-02, -3.47954966e-02, -1.45896170e-02, -2.59988159e-02,
       3.81008871e-02, 5.15218712e-02, -1.19169513e-02, -9.77717061e-03,
       -1.16569716e-02, 3.16292490e-03, 4.06939245e-04, 1.69229992e-02,
       2.19790619e-02, 3.41534764e-02, 3.85560095e-02, 1.82860461e-03,
       -5.25326561e-03, 3.95946810e-03, -1.28786534e-03, 2.42319293e-02,
       3.16586979e-02, 1.30850682e-02, -3.24445292e-02, -3.47330533e-02,
       -5.91312982e-02, -1.43319862e-02, -3.49802733e-03,
       -9.63573996e-03, -2.30752099e-02, -1.72942169e-02,
       -4.65121195e-02, 3.50153400e-03, -2.02510469e-02, -3.32951248e-02,
       3.61094484e-03, -3.30296927e-03, -1.16320020e-02, -1.82611197e-02,
       -2.07185522e-02, -1.53687857e-02, 1.25664612e-02, 3.21780778e-02,
       2.12847795e-02, 2.03342065e-02, 2.76531484e-02, 5.40099330e-02,
       6.63595647e-02, 6.95941672e-02, 2.60101911e-02, -1.04178321e-02,
       2.10173167e-02, -1.89395342e-02, -7.29276380e-03, 1.01722740e-02,
       2.87688915e-02, 3.57054174e-02, 6.27671778e-02, 2.67981291e-02,
       8.54989979e-03, -7.09584402e-03, -1.22635681e-02, 2.47877315e-02,
       3.21977329e-03, 1.04170339e-03, 2.53283549e-02, 2.20291484e-02,
       -1.58177922e-03, -2.57290863e-02, -3.19338888e-02,
       -3.15327495e-02, -6.03532419e-02, -9.76613071e-03,
       -5.20075001e-02, -3.01531833e-02, -2.82179918e-02,
       -2.72115674e-02, 4.65599895e-02, 6.09345958e-02, 3.25610004e-02,
       1.08178511e-01, 7.70024732e-02, 4.80354317e-02, 5.60080372e-02,
       5.83661944e-02, 6.75213039e-02, 5.32523356e-03, -2.91384999e-02,
       -3.70348543e-02, -6.56072330e-03, 6.58437517e-03, -3.94563451e-02,
       -2.41156295e-02, -5.75951263e-02, -2.05432642e-02, 3.76577340e-02,
       3.36374901e-02, 1.19013451e-02, 3.69671583e-02, 4.96149249e-02,
       3.34105939e-02, 1.69727113e-02, 1.83894671e-02, 1.82718057e-02,
       -4.13381942e-02, -4.36078720e-02, -2.89738234e-02,
       -2.16664635e-02, 2.14185030e-03, -3.42010632e-02, -4.25365157e-02,
       -4.98646311e-02, -2.29526851e-02, 2.09386311e-02, -5.31240320e-03,
       2.62068808e-02, 1.18058324e-02, -2.75543593e-02, 1.30256135e-02,
       -4.61872248e-03, -3.07033490e-02, -8.23805761e-03,
       -5.15205844e-04, -3.27760950e-02, 3.34756486e-02, 2.89460775e-02,
       -6.81254268e-03, 2.36253925e-02, 3.28116748e-03, -4.28381413e-02,
       -1.12485355e-02, -3.13012453e-04, -1.97848529e-02, 9.94120818e-03,
       9.38356330e-04, 1.59073435e-02, 9.79462638e-03, -6.42597303e-03,
       -7.56639801e-03, 2.96899257e-03, -2.61282343e-02, -4.90517281e-02,
       3.34371962e-02, 1.10114031e-02, -1.82749145e-02, 1.77032463e-02,
       -6.46558730e-03, -1.91438422e-02, -4.37177857e-03,
       -9.37558617e-03, -2.87515521e-02, -9.77958925e-03, 3.67500931e-02,
       1.08904969e-02, 3.05828322e-02, 1.67909097e-02, 1.37557986e-03,
       3.24263312e-02, 1.39497984e-02, -3.74009949e-03, -9.65173077e-03,
       5.36438916e-03, -2.62866467e-02, 5.01483306e-03, -1.60893127e-02,
       1.28376950e-02, 3.24238576e-02, -7.84057379e-03, -1.97992306e-02,
       -5.48833748e-03, 4.42461930e-02, 3.60878520e-02, 4.15270776e-02,
       1.21915536e-02, -6.49137609e-03, -1.64858513e-02, 3.03515159e-02,
       1.03408908e-02, 1.96080506e-02, 1.57794468e-02, -2.27226466e-02,
       2.08954755e-02, 1.39094973e-02, 1.48844030e-02, 3.67255881e-02,
       -3.27422540e-03, -2.25698352e-02, -8.93174391e-03, 1.91769823e-02,
       2.30999459e-02, -9.93316155e-03, -1.87159199e-02, 1.05306432e-02,
       1.82743352e-02, 1.80462636e-02, -9.19395708e-04, 2.06661914e-02,
       4.45234179e-02, 1.41473077e-02, 2.45393924e-02, -3.78896529e-03,
       1.46180089e-03, 7.46914186e-03, 2.87898332e-02, 2.58907117e-03,
       -7.64397345e-03, 1.54499393e-02, 1.91191956e-02, -7.96561968e-03,
       -2.97013298e-02, -2.35619154e-04, 2.57640835e-02, 1.45882787e-02,
       4.98093991e-03, 2.33607534e-02, 1.80564579e-02, 1.54974731e-02,
       1.13690021e-02, -2.06941068e-02, -1.04525229e-02, 2.48617753e-02,
       2.30637938e-02, 9.03324876e-03, 1.07831080e-02, 2.31867079e-02,
       2.28418000e-02, 9.82403755e-03, -1.05132079e-02, -2.98878010e-02,
       2.55413186e-02, -1.70257920e-03, 2.65305862e-02, 1.87219877e-03,
       -1.95003524e-02, 1.03167854e-02, 1.27256438e-02, -1.90873314e-02,
       -3.66171598e-02, -3.95345986e-02, -2.17099395e-03,
       -2.84723155e-02, -3.59988515e-03, -6.87338412e-03, 2.44134795e-02,
       1.97523553e-03, -2.57726554e-02, -6.18350320e-03, 1.83491744e-02,
       -8.51169508e-03, 2.64445134e-03, 2.94197351e-03, 1.33043155e-03,
       -2.26026867e-02, -2.04291176e-02, 1.33449142e-03, -2.18999176e-03,
       -6.55882899e-03, -2.39043427e-03, 3.13831009e-02, 9.63328965e-03,
       -4.06826613e-03, -6.44545723e-03, 3.59650478e-02, 2.13118196e-02,
       9.21587925e-03, -1.35357855e-02, -3.74475643e-02, 1.56316552e-02,
       -1.99415232e-03, -1.96441356e-03, -5.11792663e-04,
       -1.16463900e-02, -2.12134421e-02, 1.47942286e-02, -2.13848669e-02,
       1.37320091e-03, -1.43838275e-04, -6.30342960e-03, -3.20039061e-03,
       2.42471322e-02, -2.34282501e-02, -3.45638162e-03, 5.26856631e-03,
       -8.48423981e-04, 9.88164544e-03, -5.93273249e-03, -8.54543038e-03,
       9.13154974e-04, 2.90299486e-02, -9.56876762e-03, -1.46731837e-02,
       3.58839482e-02, 2.82950997e-02, -2.36831773e-02, 3.73235308e-02,
       -1.78099386e-02, -5.88183803e-03, -1.98351056e-03,
       -9.25838295e-03, -3.08108944e-02, 5.90801276e-02, 3.43171507e-02,
       -3.69387381e-02, 8.29861034e-03, -2.34059095e-02, -3.19762249e-03,
       2.20796447e-02, -8.29122402e-03, -2.24446803e-02, 1.98903941e-02,
       9.13138501e-03, 1.70181005e-03, -7.21911574e-03, -3.03463675e-02,
       -7.86680356e-03, 6.34578988e-03, -1.09644246e-03, 1.15107943e-03,
       5.21681383e-02, 3.41886617e-02, 2.91464827e-03, 3.47258081e-03,
       -1.94109287e-02, 1.71806721e-03, 9.83131863e-03, -3.92842591e-02,
       -3.40211168e-02, 1.05225742e-02, 2.37788912e-02, -2.08464731e-02,
       1.79452486e-02, 1.74281169e-02, 3.25021073e-02, 2.36916426e-03,
       -5.23636909e-03, 8.39547440e-03, 3.02617829e-02, 8.35308805e-03,
       -1.13974474e-02, -1.03077048e-03, 1.51016209e-02, -1.17080770e-02,
       -9.82422475e-03, -2.72290502e-02, -1.28222639e-02, 1.97841730e-02,
       -1.27485069e-02, 3.00575886e-02, 5.02871312e-02, 6.14771573e-03,
       2.10715383e-02, 1.52931688e-02, -5.43162785e-03, -2.83105262e-02,
       2.50298698e-02, 9.84030124e-03, 4.74926978e-02, 4.77125160e-02,
       2.08478030e-02, 1.56438944e-03, 2.63930541e-02, -5.76960994e-03,
       -3.05840047e-03, 2.06784811e-02, 3.84830381e-03, -1.12675419e-02,
       3.14722843e-02, 2.66670939e-02, -6.14011893e-03, -1.86710823e-02,
       -5.84826060e-03, -2.24845149e-02, 4.51714285e-02, 1.28276495e-03,
       -1.99374482e-02, 1.88044216e-02, 1.61929000e-02, -7.73131801e-03,
       -9.13430564e-03, -1.64884478e-02, -2.75986698e-02, 2.15725303e-02,
       4.04899241e-03, 2.05598734e-02, 3.81572843e-02, 2.50317119e-02,
       9.06331930e-03, 2.01020017e-02, -2.89091524e-02, -1.90494452e-02,
       -5.56411734e-03, 4.47588833e-03, -1.33038303e-02, 1.05008692e-03,
       5.74851781e-03, -1.08702704e-02, -4.33346443e-03, -3.37133147e-02,
       7.93156493e-03, -7.35607278e-03, -7.44240452e-03, 4.69544483e-03,
       4.24242914e-02, 1.06301578e-02, 2.83063222e-02, 3.13450433e-02,
       2.07365975e-02, -5.42509276e-03, 1.25213955e-02, 4.28954028e-02,
       -1.15623586e-02, 7.72694265e-03, 6.37717749e-05, 3.71617600e-02,
       2.73737106e-02, -6.44783303e-03, -8.76033586e-03, 8.76015332e-03,
       -1.34636520e-03, 3.30692269e-02, 1.68113019e-02, 1.01547297e-02,
       1.23505667e-02, 7.86471274e-03, 1.36239640e-02, 2.37818956e-02,
       -2.14845571e-03, 1.50833940e-02, -4.12263349e-03, -1.82432830e-02,
       -4.49216878e-03, -2.17616232e-03, 1.68831218e-02, -4.40521864e-03,
       -6.68386929e-03, -2.10894365e-02, 5.79935033e-03, 3.84426978e-03,
       9.50176921e-03, 1.77165978e-02, 6.78945407e-02, 4.45253327e-02,
       1.89932752e-02, -3.66259925e-03, 1.82007123e-02, 1.69401686e-03,
       -2.54713814e-03, -8.77139717e-03, 1.07075507e-02, 4.55452725e-02,
       1.28703658e-02, 2.04262007e-02, 1.40987826e-03, 1.97261684e-02,
       -2.72374740e-03, 5.78235893e-04, -1.82922347e-03, -1.29605969e-02,
       1.41909504e-02, -3.46413883e-03, -9.83368140e-03, -2.17951797e-02,
       -2.17427965e-02, 1.02095939e-02, -7.48331193e-03, -1.09867211e-02,
       -9.47177783e-03, 2.50662677e-03, -1.02606742e-02, 2.64412770e-03,
       -2.95979213e-02, 1.73267419e-03, 2.89444476e-02, -4.84181866e-02,
       -5.34925377e-03, 1.47602903e-02, 4.25116681e-02, -1.04912404e-04,
       1.76906753e-02, -2.80605257e-02, 5.05316108e-02, -6.64225128e-03,
       -1.43474992e-02, 1.42895640e-03, -2.06862371e-02, 1.35250604e-02,
       5.58493240e-03, -6.39466289e-03, -1.63206086e-02, 6.31578416e-02,
       1.46745089e-02, -4.80904207e-02, -3.34612536e-03, 3.66766308e-03,
       2.28714868e-02, -8.00112262e-03, 1.09348830e-03, -3.57902795e-02,
       5.54809486e-03, 1.65258837e-03, -3.06999180e-02, -1.13861477e-02,
       -7.73466239e-03, -2.66481703e-03, -4.20391647e-04,
       -8.48009065e-03, -3.01630162e-02, 1.58388652e-02, -1.04422681e-02,
       1.88799277e-02, 3.54871042e-02, 9.65570100e-03, 4.38994281e-02,
       2.84779873e-02, 5.74985426e-03, 1.14516569e-02, 5.17086536e-02,
       1.94482300e-02, -1.69769339e-02, -3.94173386e-03, -1.53115578e-02,
       1.89372469e-02, 3.55011746e-02, 4.15219069e-02, 1.98179798e-04,
       2.00665146e-02, -1.23495178e-03, -1.80389397e-02, 8.70955084e-03,
       -1.58936437e-02, 1.24851270e-02, 9.87083185e-03, -9.81381442e-03,
       -2.69357990e-02, 8.46256781e-03, -1.70608982e-02, -2.52336804e-02,
       -2.43213251e-02, -5.20090014e-02, -1.79698579e-02,
       -2.85475934e-03, -5.24422759e-03, -3.33697423e-02,
       -2.40631104e-02, -2.45338418e-02, -4.44593607e-03, 1.20490743e-02,
       -1.27526075e-02, 3.14965509e-02, 5.46551459e-02, 5.25559746e-02,
       8.34956951e-03, 3.90678644e-02, 3.36712636e-02, 1.96749941e-02,
       1.05740158e-02, 2.24730000e-02, 3.33347172e-02, 1.58169009e-02,
       2.92763636e-02, 2.39696726e-02, 2.99299210e-02, 2.11170763e-02,
       2.24405210e-02, -5.99949807e-03, -2.43958812e-02, 8.11414979e-03,
       1.15940711e-02, 1.58858777e-03, -1.81931332e-02, 6.83894940e-03,
       2.92669218e-02, -3.01567861e-03, -3.36626265e-03, -1.78498738e-02,
       -2.22044718e-02, -2.88857594e-02, -5.70887439e-02,
       -1.60809048e-02, -1.25238975e-03, -1.03459489e-02, 1.82717592e-02,
       2.99270991e-02, 3.70675549e-02, 5.66245802e-02, 5.70214763e-02,
       4.80365083e-02, 3.78710255e-02, 2.77708545e-02, 1.96871478e-02,
       -8.42345133e-03, 4.18703398e-03, 8.89896997e-04, 1.29654631e-02,
       1.67918857e-02, 8.01253039e-03, 7.05525093e-03, -6.64164638e-03,
       2.09267903e-02, -7.09599815e-03, 7.74509972e-03, -1.16100293e-02,
       -3.14929187e-02, 2.24858965e-03, -1.65697746e-02, -1.58005096e-02,
       -7.66065111e-03, -1.66732259e-02, -2.62730531e-02,
       -4.20342162e-02, -1.87378246e-02, -3.87097076e-02,
       -2.05698516e-02, -1.99028049e-02, -4.51645665e-02,
       -5.60163334e-02, -4.56554256e-03, 1.19775431e-02, 2.09539887e-02,
       2.12813821e-02, 5.27502038e-02, 2.18522791e-02, 3.35613675e-02,
       5.20402938e-02, 3.44387367e-02, 9.37309023e-03, -2.03460865e-02,
       3.83935007e-03, 1.44397505e-02, 6.07061666e-03, -7.69738387e-03,
       -1.50460992e-02, 2.50250474e-02, -1.02726212e-02, -1.53536163e-02,
       2.00397950e-02, -6.91486010e-03, 3.33226584e-02, 6.57512387e-03,
       -1.38353324e-02, 8.36930145e-03, 2.48229355e-02, -1.13343131e-02,
       6.68411609e-03, 2.55311970e-02, 1.45802945e-02, 1.12680970e-02,
       7.98614509e-03, 5.80048545e-05, -1.93063058e-02, 4.10061851e-02,
       1.29707586e-02, 4.54591261e-03, 5.80104766e-03, 2.77744653e-03,
       2.80234870e-02, -4.77320654e-03, -2.25537457e-02, 1.54033711e-04,
       3.47404592e-02, -1.49403070e-03, 2.45360807e-02, -1.95059890e-03,
       -4.40237746e-02, 2.66613415e-03, 1.16277104e-02, -1.95942335e-02,
       2.14396827e-02, -5.99394552e-03, -2.73515042e-02, 1.57715306e-02,
       2.32362989e-02, 1.40191363e-02, 3.75340581e-02, 2.86798663e-02,
       -2.75080791e-04, 2.13758759e-02, 5.08291982e-02, 2.06199698e-02,
       1.24580218e-02, 2.52460539e-02, -2.50596385e-02, 8.49811453e-03,
       1.60717312e-02, -7.72478059e-03, -4.23786929e-03, -5.61505603e-03,
       -4.22292463e-02, 1.33472076e-02, -7.24076480e-03, -3.27372402e-02,
       -3.64100821e-02, -6.19224133e-03, 3.87731269e-02, 2.76592802e-02,
       -7.42741069e-03, -2.03169640e-02, -1.73051283e-02, 2.04492477e-03,
       1.35767944e-02, 9.37810075e-03, 1.56314839e-02, -1.56808295e-03,
       2.19115000e-02, 2.01196503e-02, -7.51744490e-03, -1.04841152e-02,
       -3.97878641e-04, -4.58094999e-02, -3.31554636e-02, 1.27130467e-02,
       1.44885364e-03, 3.03127095e-02, -1.47810401e-02, -4.53759804e-02,
       -8.32988997e-04, 7.68906064e-03, -2.10434366e-02, -7.77263253e-04,
       3.43222730e-02, -5.97351277e-03, -6.14460185e-03, -5.49021643e-03,
       5.90432761e-03, 4.87550646e-02, -4.95904032e-03, 7.77239120e-03,
       6.83551980e-03, 1.80360489e-02, 1.12606809e-02, 4.65550227e-03,
       -1.53790679e-05, -4.54980321e-03, 2.01139282e-02, 7.98239000e-03,
       6.81852282e-04, 5.56743983e-03, 4.18921411e-02, 9.47969034e-03,
       1.01095587e-02, -1.71811860e-02, -2.35797502e-02, 3.14500891e-02,
       2.11886987e-02, -8.99832696e-03, -2.71221660e-02, -1.28572894e-04,
       1.45979533e-02, -1.38557302e-02, 4.17886302e-03, -1.25631141e-02,
       4.53940555e-02, -4.82029514e-03, 2.24876218e-02, -2.99669262e-02,
       2.49962285e-02, -1.69896856e-02, 2.00509876e-02, -6.21458748e-04,
       -2.59089447e-03, 2.19011158e-02, -2.35017519e-02, -3.24449986e-02,
       -1.51996091e-02, 5.16501674e-03, 2.51615001e-03, -1.84887927e-02,
       -3.25518921e-02, 3.29934497e-04, 1.20485388e-02, -1.60361920e-02,
       4.37865732e-04, 2.51194909e-02, 2.07077451e-02, -6.94880076e-03,
       -3.24943028e-02, -1.33833373e-02, 8.62951204e-03, -1.11345192e-02,
       -5.13266167e-03, 1.47872018e-02, -7.89754558e-03, 2.71067023e-02,
       1.18306801e-02, -3.17385071e-03, -6.87811524e-03, 1.19476961e-02,
       2.37980057e-02, 2.18488835e-02, 3.22346576e-03, 1.48582906e-02,
       1.15267411e-02, -9.78806801e-03, -2.16456801e-02, -8.61194916e-03,
       1.67856682e-02, 2.19793543e-02, -1.75767113e-02, 1.52011141e-02,
       1.53998435e-02, -9.32266121e-05, -1.27002771e-03, 1.71765557e-03,
       -3.57730524e-03, 7.20336847e-03, -1.66606288e-02, -3.05335019e-02,
       -1.76578332e-02, 4.90337890e-03, 1.69632677e-02, 1.25004083e-03,
       3.44429072e-03, -1.03971576e-02, -2.72487313e-03, -1.87444203e-02,
       1.21455197e-03, -1.41576845e-02, 1.01071205e-02, 9.99121368e-03,
       -8.56747944e-03, -1.54648593e-03, -1.22418292e-02, 2.78607700e-02,
       2.22528707e-02, -2.20938716e-02, -3.29776257e-02, -2.52885930e-03,
       2.02075318e-02, 6.80888351e-03, 4.74768691e-03, -6.62759459e-03,
       3.90486373e-03, -3.30702476e-02, -3.19676511e-02, 6.35048049e-03,
       2.77941078e-02, 2.40361169e-02, 1.42804505e-02, 1.93545017e-02,
       -1.84762608e-02, 1.29645495e-02, -1.08908787e-02, -2.24772990e-02,
       6.09566132e-03, 7.01081846e-03, -2.38340045e-03, -3.07149487e-03,
       -1.18411370e-02, -2.51717009e-02, 9.21310799e-04, -2.49856357e-02,
       -7.20285624e-03, 1.72517672e-02, 4.62447712e-03, 4.71324986e-03,
       -8.13317113e-03, 6.18647505e-03, -2.79077291e-02, 1.76321752e-02,
       -2.10768338e-02, -1.38272271e-02, 1.59519278e-02, -2.02554837e-02,
       -1.32103609e-02, 1.53542380e-03, -1.39676072e-02, -3.72498669e-02,
       -5.94812562e-04, -3.59819196e-02, -5.37609216e-04, 2.78832708e-02,
       -6.81377109e-03, 2.78083771e-03, 3.64244543e-02, 2.74875592e-02,
       -5.59232291e-03, 1.32380631e-02, -1.05016092e-02, -2.12063850e-03,
       3.24385129e-02, -1.00355754e-02, -1.59369484e-02, 2.61140615e-02,
       4.93115187e-03, -5.08611975e-03, 2.38470230e-02, -2.23379154e-02,
       3.93152423e-03, 8.05360451e-03, -2.68538631e-02, -2.91155255e-03,
       3.60179855e-03, 2.79133059e-02, -1.00311087e-02, 5.76371234e-03,
       -2.36514434e-02, -2.16246974e-02, -8.21113866e-03,
       -3.97155508e-02, -2.52540335e-02, 7.22595816e-03, 1.88743286e-02,
       -2.14739814e-02, -1.61496662e-02, -3.55487093e-02,
       -1.10905301e-02, 4.79189232e-02, 1.85818952e-02, 1.84069183e-02,
       2.21914910e-02, 1.79107208e-02, -1.51312235e-03, 6.17637765e-03,
       -1.01775210e-02, -3.37829925e-02, 1.82548389e-02, -5.75809553e-03,
       -6.15688087e-03, -9.57937539e-03, -1.95635501e-02, 2.14217696e-03,
       4.99358110e-04, -3.55889313e-02, 4.85237362e-03, 1.58287399e-02,
       -1.19397361e-02, -2.29322561e-03, -1.24011412e-02, 2.28253193e-02,
       -2.44212504e-02, -2.31873076e-02, -3.54292654e-02, 6.53040921e-03,
       2.27567963e-02, -2.86955684e-02, -1.43383574e-02, 1.46670192e-02,
       -3.04697547e-02, -3.69494185e-02, -1.24379424e-02,
       -4.43912074e-02, 2.05143765e-02, 3.58202904e-02, 1.80529840e-02,
       2.75125317e-02, 8.26496724e-03, 3.34658772e-02, 3.66652198e-02,
       2.88948510e-02, 9.80250631e-03, -1.19152628e-02, -7.45812664e-03,
       -2.47863820e-03, -2.54213046e-02, -2.77369227e-02,
       -7.75086740e-03, 3.63839348e-03, -1.44036971e-02, -1.51383961e-02,
       2.86415545e-03, 2.99170185e-02, -9.66424681e-03, 3.80658731e-02,
       2.23572142e-02, 1.02251237e-02, -1.62921697e-02, 1.38855446e-02,
       -2.26720478e-02, -4.24188524e-02, -1.04440767e-02,
       -2.41517760e-02, 1.75697319e-02, 6.25152001e-03, -2.14087311e-02,
       -2.20801942e-02, 1.06216818e-02, -8.21525510e-03, 7.09176902e-03,
       8.21900833e-03, -8.49181134e-03, -1.26210973e-02, -3.30929160e-02,
       -1.73975881e-02, 7.33494572e-03, -4.55520395e-03, 2.02037450e-02,
       1.71687324e-02, 3.53237242e-02, 7.53737940e-03, -1.04845632e-02,
       -3.61811556e-02, -4.08135680e-03, 1.19807981e-02, 3.63636413e-03,
       7.68085383e-03, 1.83621533e-02, 2.25877799e-02, -2.63170209e-02,
       5.96013665e-03, -1.52055752e-02, -2.15429198e-02, -3.25373141e-03,
       -9.20426473e-03, -2.77110822e-02, 2.22802069e-02, 3.84606421e-02,
       -1.70361754e-02, -2.48922277e-02, -1.54806068e-02,
       -1.23235490e-02, -2.68145395e-03, 1.45289581e-03, -2.65096594e-03,
       -6.98420079e-03, 2.12365407e-02, 6.40966510e-03, 2.87422910e-02,
       1.76027585e-02, 1.93341523e-02, 2.03210469e-02, 8.47524405e-03,
       1.33651346e-02, -2.24797595e-02, -1.06666973e-02, -2.12881900e-02,
       4.14537359e-03, 2.63960240e-03, 2.67653372e-02, -2.17421614e-02,
       -1.44077679e-02, -3.79644297e-02, 1.24703571e-02, 2.95035951e-02,
       -1.07814800e-02, 3.00872931e-03, -1.05949957e-02, -1.72116105e-02,
       -1.23006171e-02, 4.32287809e-03, -1.65058468e-02, -1.17465183e-02,
       -1.32398885e-02, -5.51152751e-02, 8.74044746e-03, 4.30319365e-03,
       -2.63284352e-02, -6.90398812e-02, -1.80029776e-02,
       -3.69524695e-02, -2.37811003e-02, 1.14354081e-02, -2.59397668e-03,
       2.58199088e-02, -1.16613721e-02, 2.62639541e-02, -1.56414360e-02,
       -1.28936232e-03, -2.91702477e-03, -4.50129323e-02,
       -9.44286585e-03, -2.32678596e-02, -6.60474272e-03,
       -2.88807712e-02, 1.03681488e-03, -2.10198909e-02, -6.66643376e-04,
       -1.42497011e-02, 2.43924884e-03, -8.59090965e-03, -2.20209416e-02,
       -5.05392672e-03, -1.35813821e-02, 8.91396776e-03, -2.46164817e-02,
       -1.94787106e-03, 1.19094271e-02, -2.88748946e-02, 8.28461070e-03,
       -1.61092728e-02, -8.42009392e-03, -2.77833380e-02, 1.67877227e-02,
       -2.17107665e-02, -3.56331356e-02, -2.97867563e-02,
       -1.48614692e-02, 9.94372461e-03, 6.14556251e-03, 4.21230458e-02,
       1.11327237e-02, 1.09264441e-02, -8.74223560e-03, 1.07565736e-02,
       1.84667185e-02, -1.77720655e-02, 5.21521375e-04, -9.85041726e-03,
       -2.19030335e-04, -2.21173577e-02, -3.86327170e-02,
       -3.02744377e-02, -1.88467447e-02, -1.90418605e-02,
       -7.27500115e-03, 2.24053580e-02, 1.03794206e-02, -3.34931479e-04,
       1.51390629e-02, 2.44156420e-02, 1.56216475e-03, 1.38141429e-02,
       -2.24607391e-03, -1.39192156e-02, -1.49770151e-03,
       -3.61879207e-02, -2.42814384e-02, -2.80787833e-02,
       -2.19543129e-02, -9.33213905e-03, 3.70271457e-03, -2.82869153e-02,
       -7.80707458e-03, 2.52487604e-02, 1.23098269e-02, 8.96355510e-03,
       2.55542118e-02, 2.93378569e-02, 4.55502188e-03, 4.54069301e-03,
       -1.39176706e-02, -1.92675125e-02, -1.65788624e-02, 1.68623440e-02,
       -8.44047498e-03, -1.51000218e-02, -2.14886647e-02,
       -4.41742502e-03, -1.16843162e-02, 8.61251436e-04, -8.55419319e-03,
       7.29720807e-03, -1.39993746e-02, -2.35057203e-03, -5.14557876e-04,
       2.79961862e-02, 7.63300480e-03, -1.51791926e-02, -2.15754434e-02,
       -1.54713457e-02, 2.05323044e-02, 4.62741591e-03, -2.35810727e-02,
       8.72406457e-03, -1.26058189e-02, -1.60072709e-03, -1.90680876e-04,
       -2.76601724e-02, 1.34329246e-02, -1.03270663e-02, 4.90988512e-03,
       -5.39912237e-03, 7.72543065e-03, 1.84340030e-02, 2.70785540e-02,
       1.43153230e-02, 4.69082594e-03, 7.49734696e-03, -1.30930776e-02,
       9.75666754e-03, 5.34481136e-03, 3.68678272e-02, 3.66011215e-03,
       1.04972450e-02, -1.00676455e-02, -1.30352825e-02, 3.36838816e-03,
       4.42612208e-02, -1.49293884e-03, -1.17579736e-02, 1.23689501e-02,
       1.16527751e-02, 1.41707929e-02, 2.28126626e-02, 1.06685366e-02,
       -4.19967063e-03, 1.53349740e-02, 1.68923195e-02, 2.74854974e-04,
       1.91258695e-02, 1.35384419e-03, -7.52448477e-03, -1.14585897e-02,
       -1.32911317e-02, -3.07577886e-02, -3.31247710e-02, 8.21262598e-03,
       2.93771997e-02, -1.06559834e-03, -1.27621386e-02, -8.28645751e-03,
       -2.75599845e-02, -3.30242813e-02, 2.45638308e-03, -3.38183828e-02,
       -9.52977594e-03, -5.26096672e-03, -7.84228742e-03,
       -1.01438621e-02, -9.21913330e-03, -4.44003828e-02,
       -1.01862587e-02, 2.71260217e-02, -3.96565488e-03, 2.01335233e-02,
       -1.48646245e-02, -2.15845406e-02, 1.15567120e-02, -3.31978463e-02,
       -1.22535825e-02, 1.10601252e-02, 2.14925148e-02, 5.09690074e-03,
       1.69796795e-02, -3.67260017e-02, 6.62313681e-03, 4.17607278e-02,
       -1.13037722e-02, -2.99292728e-02, 1.46940467e-03, -1.27019167e+00 ]
